{"learner":{"attributes":{"scikit_learn":"{\"_estimator_type\": \"classifier\"}"},"feature_names":["wind_max_mps","precip_sum_mm","precip_3d_mm","precip_7d_mm"],"feature_types":["float","float","float","float"],"gradient_booster":{"model":{"cats":{"enc":[],"feature_segments":[],"sorted_idx":[]},"gbtree_model_param":{"num_parallel_tree":"1","num_trees":"300"},"iteration_indptr":[0,1,2,3,4,5,6,7,8,9,10,11,12,13,14,15,16,17,18,19,20,21,22,23,24,25,26,27,28,29,30,31,32,33,34,35,36,37,38,39,40,41,42,43,44,45,46,47,48,49,50,51,52,53,54,55,56,57,58,59,60,61,62,63,64,65,66,67,68,69,70,71,72,73,74,75,76,77,78,79,80,81,82,83,84,85,86,87,88,89,90,91,92,93,94,95,96,97,98,99,100,101,102,103,104,105,106,107,108,109,110,111,112,113,114,115,116,117,118,119,120,121,122,123,124,125,126,127,128,129,130,131,132,133,134,135,136,137,138,139,140,141,142,143,144,145,146,147,148,149,150,151,152,153,154,155,156,157,158,159,160,161,162,163,164,165,166,167,168,169,170,171,172,173,174,175,176,177,178,179,180,181,182,183,184,185,186,187,188,189,190,191,192,193,194,195,196,197,198,199,200,201,202,203,204,205,206,207,208,209,210,211,212,213,214,215,216,217,218,219,220,221,222,223,224,225,226,227,228,229,230,231,232,233,234,235,236,237,238,239,240,241,242,243,244,245,246,247,248,249,250,251,252,253,254,255,256,257,258,259,260,261,262,263,264,265,266,267,268,269,270,271,272,273,274,275,276,277,278,279,280,281,282,283,284,285,286,287,288,289,290,291,292,293,294,295,296,297,298,299,300],"tree_info":[0,0,0,0,0,0,0,0,0,0,0,0,0,0,0,0,0,0,0,0,0,0,0,0,0,0,0,0,0,0,0,0,0,0,0,0,0,0,0,0,0,0,0,0,0,0,0,0,0,0,0,0,0,0,0,0,0,0,0,0,0,0,0,0,0,0,0,0,0,0,0,0,0,0,0,0,0,0,0,0,0,0,0,0,0,0,0,0,0,0,0,0,0,0,0,0,0,0,0,0,0,0,0,0,0,0,0,0,0,0,0,0,0,0,0,0,0,0,0,0,0,0,0,0,0,0,0,0,0,0,0,0,0,0,0,0,0,0,0,0,0,0,0,0,0,0,0,0,0,0,0,0,0,0,0,0,0,0,0,0,0,0,0,0,0,0,0,0,0,0,0,0,0,0,0,0,0,0,0,0,0,0,0,0,0,0,0,0,0,0,0,0,0,0,0,0,0,0,0,0,0,0,0,0,0,0,0,0,0,0,0,0,0,0,0,0,0,0,0,0,0,0,0,0,0,0,0,0,0,0,0,0,0,0,0,0,0,0,0,0,0,0,0,0,0,0,0,0,0,0,0,0,0,0,0,0,0,0,0,0,0,0,0,0,0,0,0,0,0,0,0,0,0,0,0,0,0,0,0,0,0,0,0,0,0,0,0,0,0,0,0,0,0,0,0,0,0,0,0,0],"trees":[{"base_weights":[-1.0197449E-2,-6.7985976E-1,1.0007572E0,2.0905578E-1,-9.724949E-1,6.093058E-1,1.4825735E0,3.6623132E-1,-8.769483E-1,-1.0384421E0,1.2698593E0,1.7502137E-1,1.1522579E0,1.368356E0,1.7655149E0,-2.221566E-1,8.354263E-1,-9.9837534E-2,-1.7665017E-1,-1.152925E0,-4.5832705E-1,7.867781E-1,1.6163855E0,-3.93559E-1,5.7910246E-1,5.848977E-1,1.2863384E0,1.1922258E0,1.570726E0,-7.5E-2,1.7681085E0,-1.1449575E0,4.6945813E-1,1.4990541E0,5.5361646E-1,1.520228E0,-1.1719345E0,-1.2303551E0,-7.3330665E-1,-6.457491E-1,4.6141034E-1,1.4149039E0,-9.883382E-2,1.6506823E0,-8.571429E-2,-3.0493917E-2,-1.2193733E0,4.301446E-1,9.828175E-1,7.220393E-1,-9.876543E-2,9.943389E-1,1.4576023E0,1.2055273E0,-9.6E-2,1.6097305E0,4.513318E-2,1.505811E0,1.7917413E0,-9.983773E-2,-3.9549664E-2,2.5112528E-2,-9.735099E-2,-9.896641E-2,8.459797E-2,2.755569E-3,5.1738072E-2,-9.550562E-2,8.689982E-2,-9.977273E-2,4.0887553E-2,-5.7812035E-2,-7.97663E-2,1.2695441E-2,-4.6340358E-2,-8.8746066E-4,-4.5973215E-2,3.718346E-2,-9.907621E-2,7.771667E-2,-9.3650796E-2,5.0058838E-2,8.748997E-2,1.140075E-2,-5.5520285E-2,-9.985596E-2,-1.7546948E-2,2.52365E-2,-4.5102224E-2,7.082729E-2,2.6929736E-2,1.8550312E-2,8.0544196E-2,-9.825327E-2,5.3185917E-2,7.365029E-2,-9.493671E-2,-9.587629E-2,6.0925957E-2,7.450886E-2,8.885638E-2,9.399411E-2,-9.8353915E-2,7.883047E-2,-8.7878786E-2,-8.518519E-2,8.9860655E-2],"categories":[],"categories_nodes":[],"categories_segments":[],"categories_sizes":[],"default_left":[0,0,0,0,0,0,0,0,0,0,0,0,0,0,0,0,0,0,0,0,0,0,0,0,0,0,0,0,0,0,0,0,1,0,0,0,0,0,0,0,0,0,0,0,0,0,0,0,0,0,0,0,0,0,0,0,0,0,0,0,0,0,0,0,0,0,0,0,0,0,0,0,0,0,0,0,0,0,0,0,0,0,0,0,0,0,0,0,0,0,0,0,0,0,0,0,0,0,0,0,0,0,0,0,0,0,0],"id":0,"left_children":[1,3,5,7,9,11,13,15,17,19,21,23,25,27,29,31,33,-1,35,37,39,41,43,45,47,49,51,53,55,-1,57,59,61,63,65,67,69,71,73,75,77,79,-1,81,-1,83,85,87,89,91,-1,93,95,97,-1,99,101,103,105,-1,-1,-1,-1,-1,-1,-1,-1,-1,-1,-1,-1,-1,-1,-1,-1,-1,-1,-1,-1,-1,-1,-1,-1,-1,-1,-1,-1,-1,-1,-1,-1,-1,-1,-1,-1,-1,-1,-1,-1,-1,-1,-1,-1,-1,-1,-1,-1],"loss_changes":[5.7491043E4,1.3288297E4,6.381133E3,2.160026E3,5.6844336E3,4.402398E3,4.877461E2,3.0517334E3,1.254328E3,2.4789375E3,1.8260376E2,2.3838916E3,6.304414E2,3.834297E2,3.9567383E1,3.130825E3,1.1493022E3,0E0,1.6661001E3,1.0121719E3,1.0612909E3,8.025768E2,7.5785034E1,1.2924263E3,3.6431628E2,5.589449E2,3.341338E2,2.417461E2,2.9906445E2,0E0,2.4300781E1,6.320227E2,2.2319165E2,1.2329756E3,1.0357148E3,2.7580005E2,1.02032007E3,7.101328E2,9.285642E2,8.7895654E2,7.203279E2,1.7528516E2,0E0,3.8977173E1,0E0,8.364501E2,8.8842725E2,4.4085242E2,3.1404846E2,4.6987903E2,0E0,5.120967E2,2.2135742E2,2.3603711E2,0E0,9.5450195E1,4.7017468E2,8.739209E1,7.938086E1,0E0,0E0,0E0,0E0,0E0,0E0,0E0,0E0,0E0,0E0,0E0,0E0,0E0,0E0,0E0,0E0,0E0,0E0,0E0,0E0,0E0,0E0,0E0,0E0,0E0,0E0,0E0,0E0,0E0,0E0,0E0,0E0,0E0,0E0,0E0,0E0,0E0,0E0,0E0,0E0,0E0,0E0,0E0,0E0,0E0,0E0,0E0,0E0],"parents":[2147483647,0,0,1,1,2,2,3,3,4,4,5,5,6,6,7,7,8,8,9,9,10,10,11,11,12,12,13,13,14,14,15,15,16,16,18,18,19,19,20,20,21,21,22,22,23,23,24,24,25,25,26,26,27,27,28,28,30,30,31,31,32,32,33,33,34,34,35,35,36,36,37,37,38,38,39,39,40,40,41,41,43,43,45,45,46,46,47,47,48,48,49,49,51,51,52,52,53,53,55,55,56,56,57,57,58,58],"right_children":[2,4,6,8,10,12,14,16,18,20,22,24,26,28,30,32,34,-1,36,38,40,42,44,46,48,50,52,54,56,-1,58,60,62,64,66,68,70,72,74,76,78,80,-1,82,-1,84,86,88,90,92,-1,94,96,98,-1,100,102,104,106,-1,-1,-1,-1,-1,-1,-1,-1,-1,-1,-1,-1,-1,-1,-1,-1,-1,-1,-1,-1,-1,-1,-1,-1,-1,-1,-1,-1,-1,-1,-1,-1,-1,-1,-1,-1,-1,-1,-1,-1,-1,-1,-1,-1,-1,-1,-1,-1],"split_conditions":[1.4070531E1,3.8594005E-3,3.85414E1,8.6749723E-4,8.911599E0,3.8072848E0,5.7499332E0,4.351138E-4,1.7072288E-3,5.167891E0,5.8491163E0,5.951956E0,4.398583E0,6.237119E1,9.684186E-1,7.1125755E0,4.3809428E-4,-9.9837534E-2,1.7106533E-3,3.1109154E0,4.5326233E0,7.3162407E-1,1.3009577E1,2.2243292E0,1.6820877E1,2.7098635E1,5.0366206E0,4.2569786E1,4.8224373E0,-7.5E-2,4.4607914E1,1.2874601E-3,7.2678776E0,1.7166138E-3,8.583069E-4,2.9236078E-3,2.5821393E-3,5.4451995E0,1.6802784E0,1.4792979E-1,8.409123E0,1.734525E-1,-9.883382E-2,2.9112577E0,-8.571429E-2,2.6794329E0,4.5326233E0,1.5233156E1,2.0716803E0,2.418649E1,-9.876543E-2,1.5549505E1,2.583754E1,1.0840421E0,-9.6E-2,9.4119316E1,2.2243292E0,2.8822474E1,4.82106E0,-9.983773E-2,-3.9549664E-2,2.5112528E-2,-9.735099E-2,-9.896641E-2,8.459797E-2,2.755569E-3,5.1738072E-2,-9.550562E-2,8.689982E-2,-9.977273E-2,4.0887553E-2,-5.7812035E-2,-7.97663E-2,1.2695441E-2,-4.6340358E-2,-8.8746066E-4,-4.5973215E-2,3.718346E-2,-9.907621E-2,7.771667E-2,-9.3650796E-2,5.0058838E-2,8.748997E-2,1.140075E-2,-5.5520285E-2,-9.985596E-2,-1.7546948E-2,2.52365E-2,-4.5102224E-2,7.082729E-2,2.6929736E-2,1.8550312E-2,8.0544196E-2,-9.825327E-2,5.3185917E-2,7.365029E-2,-9.493671E-2,-9.587629E-2,6.0925957E-2,7.450886E-2,8.885638E-2,9.399411E-2,-9.8353915E-2,7.883047E-2,-8.7878786E-2,-8.518519E-2,8.9860655E-2],"split_indices":[2,2,2,1,0,0,0,1,1,0,2,1,1,2,1,0,1,0,1,1,1,2,2,1,1,2,0,1,0,0,2,2,0,2,1,2,1,2,0,2,1,1,0,1,0,0,1,1,0,2,0,2,1,0,0,2,1,1,1,0,0,0,0,0,0,0,0,0,0,0,0,0,0,0,0,0,0,0,0,0,0,0,0,0,0,0,0,0,0,0,0,0,0,0,0,0,0,0,0,0,0,0,0,0,0,0,0],"split_type":[0,0,0,0,0,0,0,0,0,0,0,0,0,0,0,0,0,0,0,0,0,0,0,0,0,0,0,0,0,0,0,0,0,0,0,0,0,0,0,0,0,0,0,0,0,0,0,0,0,0,0,0,0,0,0,0,0,0,0,0,0,0,0,0,0,0,0,0,0,0,0,0,0,0,0,0,0,0,0,0,0,0,0,0,0,0,0,0,0,0,0,0,0,0,0,0,0,0,0,0,0,0,0,0,0,0,0],"sum_hessian":[8.4918516E4,5.10819E4,3.383662E4,1.2651544E4,3.843035E4,1.867025E4,1.5166371E4,1.1052584E4,1.5989592E3,3.7332934E4,1.0974185E3,1.0373916E4,8.296334E3,1.0808887E4,4.3574844E3,4.903695E3,6.1488896E3,6.145E2,9.844592E2,3.1178936E4,6.153999E3,4.597566E2,6.3766187E2,4.3097354E3,6.0641807E3,1.5868711E3,6.7094634E3,5.782795E3,5.0260923E3,3E0,4.3544844E3,2.1004592E3,2.8032356E3,1.831533E3,4.3173564E3,3.637566E2,6.2070264E2,2.6320254E4,4.8586816E3,5.1124854E3,1.0415132E3,3.750066E2,8.475E1,6.3166187E2,6E0,2.9943303E3,1.3154053E3,4.4312554E3,1.632925E3,1.5068711E3,8E1,2.4829382E3,4.2265254E3,5.758795E3,2.4E1,4.900741E3,1.2535132E2,3.652566E2,3.9892278E3,6.1525E2,1.4852092E3,2.7664856E3,3.675E1,9.575E1,1.735783E3,2.1209724E3,2.1963843E3,2.125E1,3.425066E2,4.39E2,1.8170264E2,2.1881045E4,4.439209E3,7.962092E2,4.0624724E3,1.5522158E3,3.5602698E3,9.342632E2,1.0725E2,3.602566E2,1.475E1,8.510132E1,5.4656055E2,2.4166277E3,5.7770264E2,6.9325E2,6.221553E2,4.1969043E3,2.3435132E2,8.251145E2,8.0781055E2,1.0812632E3,4.256079E2,5.625E1,2.4266882E3,4.2077754E3,1.875E1,2.325E1,5.735545E3,2.8647014E3,2.0360396E3,6.560132E1,5.975E1,3.580066E2,7.25E0,5.75E0,3.9834778E3],"tree_param":{"num_deleted":"0","num_feature":"4","num_nodes":"107","size_leaf_vector":"1"}},{"base_weights":[4.458818E-3,-6.8187946E-1,9.939053E-1,3.4787068E-1,-1.1366014E0,5.0743E-1,1.3548757E0,-1.7993005E-1,5.557801E-1,-1.2014837E0,9.196905E-1,-2.155981E-2,8.2200354E-1,1.118154E0,1.5331057E0,2.1809588E-1,-9.7666755E-2,1.0179849E0,-1.3392312E-2,-1.3261832E0,-6.164415E-1,-9.5814325E-2,1.1647335E0,-2.1481404E-1,7.497677E-1,8.401699E-1,-1.0030662E-1,7.8081447E-1,1.3061689E0,1.4217118E0,1.6375788E0,2.483049E-1,-9.413897E-2,1.566073E0,7.9704106E-1,4.5833626E-1,-5.8729243E-1,-4.9751195E-1,-1.3635443E0,-5.224567E-1,-9.738162E-2,-9.464984E-2,1.2852743E0,6.941584E-2,-7.759252E-1,9.16305E-1,-9.670907E-2,7.871993E-1,1.6833363E0,-9.849695E-2,8.6188847E-1,1.2560827E0,1.7748266E0,-1.003662E-1,1.4455833E0,1.5395983E0,1.7112048E0,9.225994E-3,9.1548674E-2,-9.370985E-2,8.434807E-2,2.909764E-3,6.438086E-2,-9.4909236E-2,3.1182606E-2,-8.55446E-2,2.4137152E-2,-9.6398935E-2,2.67902E-2,-7.157671E-2,-4.111753E-2,-3.9644994E-2,-1.02975685E-2,3.6335614E-2,8.285807E-2,-4.3809857E-2,2.4663556E-2,-2.0538839E-2,-9.716721E-2,-9.528719E-2,4.853184E-2,4.002219E-2,-9.939664E-2,8.5444845E-2,-8.072362E-2,3.8884215E-2,7.34929E-2,6.7796335E-2,3.0519202E-2,9.0541326E-2,-8.5159354E-2,6.810895E-2,8.141692E-2,8.012112E-2,3.6059756E-2,-9.154036E-2,8.603357E-2],"categories":[],"categories_nodes":[],"categories_segments":[],"categories_sizes":[],"default_left":[0,0,0,0,0,0,0,0,0,0,0,0,0,0,0,0,0,0,0,0,0,0,0,0,0,0,0,0,0,0,0,0,0,0,0,0,0,0,0,0,0,0,0,0,0,0,0,0,0,0,0,0,0,0,0,0,0,0,0,0,0,0,0,0,0,0,0,0,0,0,0,0,0,0,0,0,0,0,0,0,0,0,0,0,0,0,0,0,0,0,0,0,0,0,0,0,0],"id":1,"left_children":[1,3,5,7,9,11,13,15,17,19,21,23,25,27,29,31,-1,33,35,37,39,-1,41,43,45,47,-1,49,51,53,55,57,-1,59,61,63,65,67,69,71,-1,-1,73,75,77,79,-1,81,83,-1,85,87,89,-1,91,93,95,-1,-1,-1,-1,-1,-1,-1,-1,-1,-1,-1,-1,-1,-1,-1,-1,-1,-1,-1,-1,-1,-1,-1,-1,-1,-1,-1,-1,-1,-1,-1,-1,-1,-1,-1,-1,-1,-1,-1,-1],"loss_changes":[5.8260363E4,2.3719291E4,6.169453E3,1.7028706E3,4.6891406E3,2.4908142E3,8.492578E2,3.0962312E3,2.9286348E3,2.484289E3,7.495468E2,8.3234015E2,4.8393018E2,5.4868066E2,1.3155078E2,2.278527E2,0E0,7.427031E2,1.3511475E3,8.686211E2,7.479988E2,0E0,3.6749988E2,7.121572E2,5.0181976E2,4.1525537E2,0E0,6.9398804E2,1.2837012E2,4.592539E2,4.0140625E1,3.5631207E2,0E0,7.367822E2,1.5876677E3,1.0683237E3,2.707878E3,1.7938131E3,9.873789E2,4.7860815E2,0E0,0E0,1.9685803E2,1.1886796E3,6.392049E2,1.6346399E2,0E0,3.2421826E2,4.9158813E1,0E0,1.5325977E2,3.2344922E2,7.0042114E1,0E0,8.2180664E1,1.3016162E2,1.1637109E2,0E0,0E0,0E0,0E0,0E0,0E0,0E0,0E0,0E0,0E0,0E0,0E0,0E0,0E0,0E0,0E0,0E0,0E0,0E0,0E0,0E0,0E0,0E0,0E0,0E0,0E0,0E0,0E0,0E0,0E0,0E0,0E0,0E0,0E0,0E0,0E0,0E0,0E0,0E0,0E0],"parents":[2147483647,0,0,1,1,2,2,3,3,4,4,5,5,6,6,7,7,8,8,9,9,10,10,11,11,12,12,13,13,14,14,15,15,17,17,18,18,19,19,20,20,22,22,23,23,24,24,25,25,27,27,28,28,29,29,30,30,31,31,33,33,34,34,35,35,36,36,37,37,38,38,39,39,42,42,43,43,44,44,45,45,47,47,48,48,50,50,51,51,52,52,54,54,55,55,56,56],"right_children":[2,4,6,8,10,12,14,16,18,20,22,24,26,28,30,32,-1,34,36,38,40,-1,42,44,46,48,-1,50,52,54,56,58,-1,60,62,64,66,68,70,72,-1,-1,74,76,78,80,-1,82,84,-1,86,88,90,-1,92,94,96,-1,-1,-1,-1,-1,-1,-1,-1,-1,-1,-1,-1,-1,-1,-1,-1,-1,-1,-1,-1,-1,-1,-1,-1,-1,-1,-1,-1,-1,-1,-1,-1,-1,-1,-1,-1,-1,-1,-1,-1],"split_conditions":[1.4070531E1,2.7807966E-1,3.0707771E1,4.351138E-4,7.349153E1,5.5972633E0,5.0093193E1,1.7106533E-3,8.6749723E-4,3.1109154E0,4.7517726E-3,6.662295E1,2.3428574E1,1.1425382E1,2.583754E1,1.3688996E-1,-9.7666755E-2,4.3809428E-4,4.2542953E-2,1.7285346E-3,9.574967E0,-9.5814325E-2,1.9524999E0,2.077788E0,2.7098635E1,1.1397339E2,-1.0030662E-1,3.9048946E1,1.466067E2,6.102229E1,7.827282E1,1.2222748E-1,-9.413897E-2,1.7166138E-3,8.583069E-4,2.9983814E-3,9.870827E-2,8.523348E-4,8.671433E0,1.8133957E1,-9.738162E-2,-9.464984E-2,1.02133415E2,1.7945633E1,3.769305E1,8.404253E-4,-9.670907E-2,9.7168655E1,1.883638E1,-9.849695E-2,1.321062E2,8.1879585E1,2.583754E1,-1.003662E-1,1.466067E2,1.1397339E2,9.280229E1,9.225994E-3,9.1548674E-2,-9.370985E-2,8.434807E-2,2.909764E-3,6.438086E-2,-9.4909236E-2,3.1182606E-2,-8.55446E-2,2.4137152E-2,-9.6398935E-2,2.67902E-2,-7.157671E-2,-4.111753E-2,-3.9644994E-2,-1.02975685E-2,3.6335614E-2,8.285807E-2,-4.3809857E-2,2.4663556E-2,-2.0538839E-2,-9.716721E-2,-9.528719E-2,4.853184E-2,4.002219E-2,-9.939664E-2,8.5444845E-2,-8.072362E-2,3.8884215E-2,7.34929E-2,6.7796335E-2,3.0519202E-2,9.0541326E-2,-8.5159354E-2,6.810895E-2,8.141692E-2,8.012112E-2,3.6059756E-2,-9.154036E-2,8.603357E-2],"split_indices":[2,3,2,1,3,1,2,2,1,1,1,3,1,1,1,3,0,1,3,2,1,0,2,1,2,3,0,3,3,3,2,3,0,2,1,2,2,1,2,3,0,0,3,2,3,1,0,3,1,0,3,3,1,0,3,3,3,0,0,0,0,0,0,0,0,0,0,0,0,0,0,0,0,0,0,0,0,0,0,0,0,0,0,0,0,0,0,0,0,0,0,0,0,0,0,0,0],"split_type":[0,0,0,0,0,0,0,0,0,0,0,0,0,0,0,0,0,0,0,0,0,0,0,0,0,0,0,0,0,0,0,0,0,0,0,0,0,0,0,0,0,0,0,0,0,0,0,0,0,0,0,0,0,0,0,0,0,0,0,0,0,0,0,0,0,0,0,0,0,0,0,0,0,0,0,0,0,0,0,0,0,0,0,0,0,0,0,0,0,0,0,0,0,0,0,0,0],"sum_hessian":[8.578919E4,5.065335E4,3.5135832E4,1.5516153E4,3.51372E4,1.496717E4,2.0168662E4,4.384855E3,1.1131299E4,3.406283E4,1.0743716E3,5.5817603E3,9.385409E3,8.665966E3,1.1502696E4,3.581822E3,8.0303296E2,6.1424463E3,4.988852E3,2.8077047E4,5.9857793E3,8.4905655E1,9.894659E2,4.4640303E3,1.1177303E3,9.326206E3,5.9203316E1,3.1032368E3,5.5627295E3,5.574026E3,5.9286704E3,3.5319175E3,4.9904537E1,1.7629836E3,4.3794624E3,2.7382744E3,2.2505776E3,1.2118754E3,2.6865172E4,5.5923413E3,3.9343823E2,3.696931E1,9.524966E2,2.9636663E3,1.5003638E3,1.053048E3,6.468234E1,8.776755E3,5.494517E2,8.817732E1,3.0150593E3,5.0289556E3,5.3377405E2,3.7961483E1,5.5360645E3,2.5530352E3,3.3756355E3,3.3961614E3,1.3575616E2,5.9354546E1,1.7036292E3,1.7479829E3,2.6314797E3,1.78817E2,2.5594575E3,1.0975195E3,1.1530582E3,5.079001E2,7.039752E2,2.3865338E4,2.9998333E3,3.0147952E3,2.5775461E3,3.8187988E2,5.706167E2,9.1693494E2,2.0467314E3,1.1439178E3,3.5644583E2,1.9247318E1,1.0338007E3,8.735774E3,4.098022E1,5.457039E2,3.7478287E0,2.650274E3,3.6478552E2,4.354518E3,6.7443713E2,5.2878015E2,4.993881E0,3.8070737E3,1.7289906E3,2.3701353E3,1.8289987E2,8.484999E0,3.3671504E3],"tree_param":{"num_deleted":"0","num_feature":"4","num_nodes":"97","size_leaf_vector":"1"}},{"base_weights":[-1.4754409E-2,-5.9763515E-1,9.7615826E-1,1.7099045E-1,-8.337565E-1,6.399608E-1,1.3444391E0,3.232005E-1,-9.2035735E-1,-1.049339E0,-1.2873642E-1,2.3337461E-1,1.1362551E0,1.2332187E0,1.6101841E0,-1.496107E-1,7.272461E-1,-9.256816E-2,-3.0329108E-1,-1.126298E0,-3.9034855E-1,-6.6894454E-1,6.0038316E-1,-3.1198195E-1,5.806846E-1,1.0639471E0,1.61593E0,1.1157463E0,1.6431825E0,-8.265608E-2,1.614076E0,-9.4868106E-1,4.4834012E-1,1.4178003E0,3.7275884E-1,1.4411137E0,-1.4269181E0,-1.0301834E0,-1.4380195E0,-7.129434E-1,5.5698514E-2,-5.230806E-2,-1.0593072E0,3.3718514E-1,1.610311E0,-1.556533E-2,-9.6416265E-2,3.756991E-1,9.9335986E-1,1.0812804E0,-1.01202205E-1,1.6941841E0,-9.964252E-2,1.1313881E0,-1.0167301E-1,1.6509284E0,-8.2730256E-2,1.4195557E0,1.6561657E0,-6.387538E-2,5.2178535E-3,8.1230566E-2,1.9351384E-2,-9.025174E-2,7.9028055E-2,4.1529503E-2,-1.7810592E-2,-8.7456554E-2,8.241059E-2,-9.329336E-2,5.3655863E-2,-8.3098695E-2,-4.969867E-2,-3.9357383E-2,-8.210872E-2,-7.138051E-2,5.5970876E-3,1.6738802E-2,-9.8580636E-2,-9.473654E-2,3.8311288E-3,-6.113374E-2,2.9786E-2,2.6906321E-3,3.8153093E-2,8.1730746E-2,-8.8176236E-2,1.7526887E-2,-4.923808E-2,2.4165759E-2,-9.933343E-2,5.2311946E-2,-1.01770476E-1,4.6045378E-2,6.197968E-2,-9.2695765E-2,8.6559534E-2,5.365267E-2,7.201219E-2,-8.483426E-2,8.283139E-2,7.813167E-2,-1.01723805E-1,-8.4683836E-2,8.3063304E-2],"categories":[],"categories_nodes":[],"categories_segments":[],"categories_sizes":[],"default_left":[0,0,0,0,0,0,0,0,0,0,0,0,0,0,0,0,0,0,0,0,0,0,0,0,0,0,0,0,0,0,0,0,0,0,0,0,0,0,0,0,0,0,0,0,0,0,0,0,0,0,0,0,0,0,0,0,0,0,0,0,0,0,0,0,0,0,0,0,0,0,0,0,0,0,0,0,0,0,0,0,0,0,0,0,0,0,0,0,0,0,0,0,0,0,0,0,0,0,0,0,0,0,0,0,0],"id":2,"left_children":[1,3,5,7,9,11,13,15,17,19,21,23,25,27,29,31,33,-1,35,37,39,41,43,45,47,49,51,53,55,-1,57,59,61,63,65,67,69,71,73,75,77,79,81,83,85,87,-1,89,91,93,-1,95,-1,97,-1,99,-1,101,103,-1,-1,-1,-1,-1,-1,-1,-1,-1,-1,-1,-1,-1,-1,-1,-1,-1,-1,-1,-1,-1,-1,-1,-1,-1,-1,-1,-1,-1,-1,-1,-1,-1,-1,-1,-1,-1,-1,-1,-1,-1,-1,-1,-1,-1,-1],"loss_changes":[4.8878797E4,9.670506E3,3.8798477E3,2.080505E3,6.195246E3,3.3064102E3,4.4007812E2,2.099748E3,8.801533E2,1.5826953E3,3.7605598E3,1.706527E3,2.5422168E2,5.061621E2,5.867285E1,2.4206177E3,1.4502351E3,0E0,1.811499E3,8.3596875E2,4.6996878E2,1.3200425E3,1.0795543E3,1.6796013E3,4.6523376E2,3.4557568E2,2.7581445E2,4.0632227E2,6.2689453E1,0E0,3.3711914E1,7.5095544E2,2.083678E2,1.0571812E3,1.3077554E3,2.4216504E2,6.187213E2,4.8717578E2,8.736826E2,1.1174465E3,7.76669E2,5.0539725E2,9.087012E2,3.8911246E2,7.174219E1,1.0518561E3,0E0,9.362818E2,2.945891E2,1.6084814E2,0E0,1.2726221E2,0E0,1.4551074E2,0E0,4.7498047E1,0E0,3.938711E2,6.4583984E1,0E0,0E0,0E0,0E0,0E0,0E0,0E0,0E0,0E0,0E0,0E0,0E0,0E0,0E0,0E0,0E0,0E0,0E0,0E0,0E0,0E0,0E0,0E0,0E0,0E0,0E0,0E0,0E0,0E0,0E0,0E0,0E0,0E0,0E0,0E0,0E0,0E0,0E0,0E0,0E0,0E0,0E0,0E0,0E0,0E0,0E0],"parents":[2147483647,0,0,1,1,2,2,3,3,4,4,5,5,6,6,7,7,8,8,9,9,10,10,11,11,12,12,13,13,14,14,15,15,16,16,18,18,19,19,20,20,21,21,22,22,23,23,24,24,25,25,26,26,27,27,28,28,30,30,31,31,32,32,33,33,34,34,35,35,36,36,37,37,38,38,39,39,40,40,41,41,42,42,43,43,44,44,45,45,47,47,48,48,49,49,51,51,53,53,55,55,57,57,58,58],"right_children":[2,4,6,8,10,12,14,16,18,20,22,24,26,28,30,32,34,-1,36,38,40,42,44,46,48,50,52,54,56,-1,58,60,62,64,66,68,70,72,74,76,78,80,82,84,86,88,-1,90,92,94,-1,96,-1,98,-1,100,-1,102,104,-1,-1,-1,-1,-1,-1,-1,-1,-1,-1,-1,-1,-1,-1,-1,-1,-1,-1,-1,-1,-1,-1,-1,-1,-1,-1,-1,-1,-1,-1,-1,-1,-1,-1,-1,-1,-1,-1,-1,-1,-1,-1,-1,-1,-1,-1],"split_conditions":[1.6177727E1,3.8594005E-3,3.85414E1,8.6749723E-4,4.7836213E0,3.8072848E0,5.628681E0,4.351138E-4,1.7072288E-3,1.2296981E1,5.5724792E0,5.951956E0,8.439305E0,9.4119316E1,1.5578926E0,7.1125755E0,4.3809428E-4,-9.256816E-2,1.7106533E-3,5.0743194E0,5.951956E0,1.7092526E-1,8.911599E0,2.8392632E0,1.6820877E1,7.8234835E0,1.5970379E1,5.359213E0,5.2605333E0,-8.265608E-2,5.0093193E1,2.573145E-3,7.4367576E0,1.7166138E-3,2.1294807E-3,2.9236078E-3,3.2782555E-3,1.4847642E0,1.8528403E0,2.9823706E0,1.2294024E1,4.351138E-4,8.911599E0,5.951956E0,1.5246788E1,2.077788E0,-9.6416265E-2,1.5233156E1,3.6851845E1,1.09933195E1,-1.01202205E-1,1.7945633E1,-9.964252E-2,4.635313E0,-1.0167301E-1,1.1450654E0,-8.2730256E-2,2.3428574E1,5.6878357E0,-6.387538E-2,5.2178535E-3,8.1230566E-2,1.9351384E-2,-9.025174E-2,7.9028055E-2,4.1529503E-2,-1.7810592E-2,-8.7456554E-2,8.241059E-2,-9.329336E-2,5.3655863E-2,-8.3098695E-2,-4.969867E-2,-3.9357383E-2,-8.210872E-2,-7.138051E-2,5.5970876E-3,1.6738802E-2,-9.8580636E-2,-9.473654E-2,3.8311288E-3,-6.113374E-2,2.9786E-2,2.6906321E-3,3.8153093E-2,8.1730746E-2,-8.8176236E-2,1.7526887E-2,-4.923808E-2,2.4165759E-2,-9.933343E-2,5.2311946E-2,-1.01770476E-1,4.6045378E-2,6.197968E-2,-9.2695765E-2,8.6559534E-2,5.365267E-2,7.201219E-2,-8.483426E-2,8.283139E-2,7.813167E-2,-1.01723805E-1,-8.4683836E-2,8.3063304E-2],"split_indices":[2,2,2,1,0,0,0,1,1,2,2,1,0,2,1,0,1,0,1,2,1,2,0,0,1,0,1,0,0,0,2,2,0,2,2,2,1,0,0,0,1,1,0,1,2,1,0,1,2,1,0,2,0,0,0,0,0,1,0,0,0,0,0,0,0,0,0,0,0,0,0,0,0,0,0,0,0,0,0,0,0,0,0,0,0,0,0,0,0,0,0,0,0,0,0,0,0,0,0,0,0,0,0,0,0],"split_type":[0,0,0,0,0,0,0,0,0,0,0,0,0,0,0,0,0,0,0,0,0,0,0,0,0,0,0,0,0,0,0,0,0,0,0,0,0,0,0,0,0,0,0,0,0,0,0,0,0,0,0,0,0,0,0,0,0,0,0,0,0,0,0,0,0,0,0,0,0,0,0,0,0,0,0,0,0,0,0,0,0,0,0,0,0,0,0,0,0,0,0,0,0,0,0,0,0,0,0,0,0,0,0,0,0],"sum_hessian":[8.462429E4,5.3282516E4,3.1341773E4,1.2521763E4,4.0760754E4,1.6386004E4,1.49557705E4,1.0989731E4,1.5320316E3,3.1215209E4,9.545545E3,9.007847E3,7.3781567E3,1.0547174E4,4.408597E3,5.064233E3,5.9254985E3,6.098752E2,9.221565E2,2.7950373E4,3.2648352E3,5.4831416E3,4.062403E3,3.5047246E3,5.5031216E3,6.414438E3,9.637188E2,8.200964E3,2.34621E3,4.7467737E0,4.40385E3,2.1673342E3,2.896899E3,2.0089637E3,3.9165347E3,3.611684E2,5.609881E2,2.136661E4,6.583763E3,1.8942544E3,1.3705808E3,2.1259766E3,3.3571653E3,3.2236255E3,8.3877747E2,2.9624575E3,5.422671E2,3.6780554E3,1.8250663E3,6.37928E3,3.515788E1,9.43784E2,1.993483E1,8.1610693E3,3.9894485E1,2.3412102E3,4.9996977E0,7.8956226E2,3.614288E3,1.651436E3,5.158981E2,1.4225514E2,2.7546438E3,9.609479E1,1.9128689E3,2.405572E3,1.5109626E3,2.1562502E1,3.396059E2,4.7741806E2,8.357003E1,1.1557762E3,2.0210834E4,1.5731655E3,5.0105977E3,1.0145416E3,8.7971277E2,1.2054717E3,1.651091E2,1.3814758E2,1.987829E3,3.0557898E3,3.0137543E2,1.9363387E3,1.2872867E3,8.332902E2,5.487224E0,2.1506948E3,8.117627E2,3.5185652E3,1.5949045E2,1.7943927E3,3.0673576E1,3.1724124E3,3.2068677E3,9.235233E0,9.3454877E2,6.8683022E3,1.292767E3,3.4748983E0,2.3377354E3,7.586826E2,3.0879627E1,4.9913697E0,3.6092966E3],"tree_param":{"num_deleted":"0","num_feature":"4","num_nodes":"105","size_leaf_vector":"1"}},{"base_weights":[2.2649165E-2,-5.795045E-1,9.050147E-1,4.4083714E-1,-9.6745217E-1,5.697442E-1,1.2919031E0,5.543061E-1,-1.1147557E-1,-1.035428E0,1.0482053E0,1.6238506E-1,1.1074209E0,1.1723642E0,1.5362035E0,3.3021995E-1,7.7886623E-1,-3.9292678E-1,8.646626E-1,-1.1410977E0,3.4270164E-1,-8.971106E-2,1.2439991E0,-6.346469E-1,5.565517E-1,9.212484E-1,1.3694423E0,1.0089883E0,1.4761715E0,-9.6215494E-2,1.5422592E0,1.7446385E-1,1.4009458E0,1.1395711E0,3.5703513E-1,3.7182897E-1,-9.3321365E-1,1.1895634E0,-9.585933E-2,-7.798E-1,-1.2660179E0,-5.7759887E-1,1.134056E0,-9.360473E-2,1.3264081E0,-3.6244434E-1,-1.4141817E0,6.1617786E-1,-5.889896E-1,5.329025E-2,1.0192137E0,1.0024279E0,1.4727423E0,-6.858455E-1,1.051216E0,1.4901395E0,-9.8553464E-2,1.4231592E0,1.5773137E0,-9.5934935E-2,1.383808E-2,8.217733E-2,-9.257911E-2,-1.6198797E-2,6.056891E-2,6.9466166E-2,4.964161E-3,-9.231188E-2,4.7409844E-2,1.5807193E-2,-9.34801E-2,-8.8719785E-2,6.3615054E-2,2.9549345E-3,-5.1816273E-2,-7.972464E-2,-5.1506836E-2,5.484687E-2,-4.261995E-2,6.1514575E-2,-9.494185E-2,7.306073E-2,9.653095E-3,-3.3165332E-2,2.0406807E-2,-8.2777075E-2,4.4598598E-2,1.8861964E-3,3.7327576E-2,6.5135084E-2,-1.0224972E-1,-5.1011182E-2,6.0510766E-2,4.865935E-2,8.5475825E-2,3.7082355E-2,8.415997E-2,-9.781077E-2,7.441786E-2,-1.06052235E-1,8.050842E-2,5.3002574E-2,-1.0240679E-1,-8.880192E-2,7.477937E-2,8.650917E-2,6.534728E-2,8.0050536E-2,6.8418525E-2],"categories":[],"categories_nodes":[],"categories_segments":[],"categories_sizes":[],"default_left":[0,0,0,0,0,0,0,0,0,0,0,0,0,0,0,0,0,0,0,0,0,0,0,0,0,0,0,0,0,0,0,0,0,0,0,0,0,0,0,0,0,0,0,0,0,0,0,0,0,0,0,0,0,0,0,0,0,0,0,0,0,0,0,0,0,0,0,0,0,0,0,0,0,0,0,0,0,0,0,0,0,0,0,0,0,0,0,0,0,0,0,0,0,0,0,0,0,0,0,0,0,0,0,0,0,0,0,0,0],"id":3,"left_children":[1,3,5,7,9,11,13,15,17,19,21,23,25,27,29,31,33,35,37,39,41,-1,43,45,47,49,51,53,55,-1,57,59,61,63,65,67,69,71,-1,73,75,77,79,-1,81,83,85,87,89,91,93,95,97,99,101,103,-1,105,107,-1,-1,-1,-1,-1,-1,-1,-1,-1,-1,-1,-1,-1,-1,-1,-1,-1,-1,-1,-1,-1,-1,-1,-1,-1,-1,-1,-1,-1,-1,-1,-1,-1,-1,-1,-1,-1,-1,-1,-1,-1,-1,-1,-1,-1,-1,-1,-1,-1,-1],"loss_changes":[4.547034E4,2.0135541E4,4.5019844E3,8.782749E2,5.0507695E3,4.073503E3,4.688164E2,5.847285E2,6.567099E2,5.1923906E3,6.71645E2,3.3251504E3,3.8981445E2,5.357959E2,1.13853516E2,9.704417E2,8.8296533E2,7.6685205E2,4.8582556E2,1.4935625E3,1.8503558E3,0E0,2.9161072E2,7.426621E2,4.840691E2,3.9872583E2,1.2469824E2,5.0474316E2,1.851084E2,0E0,1.9810547E1,1.0888076E3,5.8617834E2,3.2924268E2,7.122882E2,9.8450745E2,1.2726948E3,1.1988641E2,0E0,1.8314766E3,1.9047539E3,5.4157996E2,4.010067E2,0E0,1.6739453E2,6.024171E2,5.058318E2,5.0764868E2,9.690924E2,5.932967E2,1.3223047E2,1.2907898E2,1.4185254E2,5.6955865E2,1.9034473E2,6.971484E1,0E0,4.0966064E1,1.7972656E1,0E0,0E0,0E0,0E0,0E0,0E0,0E0,0E0,0E0,0E0,0E0,0E0,0E0,0E0,0E0,0E0,0E0,0E0,0E0,0E0,0E0,0E0,0E0,0E0,0E0,0E0,0E0,0E0,0E0,0E0,0E0,0E0,0E0,0E0,0E0,0E0,0E0,0E0,0E0,0E0,0E0,0E0,0E0,0E0,0E0,0E0,0E0,0E0,0E0,0E0],"parents":[2147483647,0,0,1,1,2,2,3,3,4,4,5,5,6,6,7,7,8,8,9,9,10,10,11,11,12,12,13,13,14,14,15,15,16,16,17,17,18,18,19,19,20,20,22,22,23,23,24,24,25,25,26,26,27,27,28,28,30,30,31,31,32,32,33,33,34,34,35,35,36,36,37,37,39,39,40,40,41,41,42,42,44,44,45,45,46,46,47,47,48,48,49,49,50,50,51,51,52,52,53,53,54,54,55,55,57,57,58,58],"right_children":[2,4,6,8,10,12,14,16,18,20,22,24,26,28,30,32,34,36,38,40,42,-1,44,46,48,50,52,54,56,-1,58,60,62,64,66,68,70,72,-1,74,76,78,80,-1,82,84,86,88,90,92,94,96,98,100,102,104,-1,106,108,-1,-1,-1,-1,-1,-1,-1,-1,-1,-1,-1,-1,-1,-1,-1,-1,-1,-1,-1,-1,-1,-1,-1,-1,-1,-1,-1,-1,-1,-1,-1,-1,-1,-1,-1,-1,-1,-1,-1,-1,-1,-1,-1,-1,-1,-1,-1,-1,-1,-1],"split_conditions":[1.4070531E1,1.520049E-1,3.6851845E1,5.0782077E-2,7.349153E1,3.9455478E0,5.214911E0,2.573145E-3,5.514854E0,6.9696445E0,1.9524999E0,3.6509884E1,6.089661E0,1.321062E2,4.201945E1,3.0028973E-2,3.8594005E-3,2.5171697E0,6.7366133E0,2.0214856E0,5.8491163E0,-8.971106E-2,1.3378494E0,2.889103E0,3.407459E1,2.3085175E1,1.8731133E1,1.4175833E0,4.8224373E0,-9.6215494E-2,5.0093193E1,2.1826336E0,1.7106533E-3,2.1947079E0,7.28572E-3,9.39426E-2,7.121266E-2,6.0596455E-2,-9.585933E-2,2.1826336E0,2.6220858E0,3.0399024E-1,1.2534899E1,-9.360473E-2,1.1394601E1,2.5869927E0,3.1756275E1,4.3777153E1,3.974596E1,5.514854E0,1.466067E2,9.65496E0,2.1523073E1,9.4119316E1,5.1243668E0,3.85414E1,-9.8553464E-2,5.359213E0,8.439305E0,-9.5934935E-2,1.383808E-2,8.217733E-2,-9.257911E-2,-1.6198797E-2,6.056891E-2,6.9466166E-2,4.964161E-3,-9.231188E-2,4.7409844E-2,1.5807193E-2,-9.34801E-2,-8.8719785E-2,6.3615054E-2,2.9549345E-3,-5.1816273E-2,-7.972464E-2,-5.1506836E-2,5.484687E-2,-4.261995E-2,6.1514575E-2,-9.494185E-2,7.306073E-2,9.653095E-3,-3.3165332E-2,2.0406807E-2,-8.2777075E-2,4.4598598E-2,1.8861964E-3,3.7327576E-2,6.5135084E-2,-1.0224972E-1,-5.1011182E-2,6.0510766E-2,4.865935E-2,8.5475825E-2,3.7082355E-2,8.415997E-2,-9.781077E-2,7.441786E-2,-1.06052235E-1,8.050842E-2,5.3002574E-2,-1.0240679E-1,-8.880192E-2,7.477937E-2,8.650917E-2,6.534728E-2,8.0050536E-2,6.8418525E-2],"split_indices":[2,3,2,3,3,0,0,2,0,0,2,3,0,3,3,3,2,0,0,3,2,0,0,0,2,3,2,0,0,0,2,0,2,0,3,3,3,3,0,0,2,3,2,0,2,0,2,3,3,0,3,0,3,2,0,2,0,0,0,0,0,0,0,0,0,0,0,0,0,0,0,0,0,0,0,0,0,0,0,0,0,0,0,0,0,0,0,0,0,0,0,0,0,0,0,0,0,0,0,0,0,0,0,0,0,0,0,0,0],"split_type":[0,0,0,0,0,0,0,0,0,0,0,0,0,0,0,0,0,0,0,0,0,0,0,0,0,0,0,0,0,0,0,0,0,0,0,0,0,0,0,0,0,0,0,0,0,0,0,0,0,0,0,0,0,0,0,0,0,0,0,0,0,0,0,0,0,0,0,0,0,0,0,0,0,0,0,0,0,0,0,0,0,0,0,0,0,0,0,0,0,0,0,0,0,0,0,0,0,0,0,0,0,0,0,0,0,0,0,0,0],"sum_hessian":[8.557804E4,5.0865906E4,3.4712133E4,1.4012218E4,3.6853688E4,1.8597955E4,1.6114177E4,1.1624117E4,2.3881008E3,3.565185E4,1.2018346E3,1.058202E4,8.0159365E3,1.082378E4,5.2903965E3,5.819436E3,5.804681E3,1.8541024E3,5.3399835E2,3.3113043E4,2.5388079E3,7.692442E1,1.1249102E3,3.5013796E3,7.0806396E3,4.6888857E3,3.3270508E3,7.0414683E3,3.7823115E3,8.688413E0,5.281708E3,5.0814165E3,7.380194E2,3.1281343E3,2.6765469E3,7.677264E2,1.0863761E3,4.7866583E2,5.5332493E1,8.509339E3,2.4603705E4,1.1738993E3,1.3649087E3,2.8423668E1,1.0964865E3,2.5962654E3,9.0511426E2,6.730761E3,3.4987842E2,4.7571002E2,4.213176E3,7.3310547E2,2.5939453E3,1.7080656E2,6.8706616E3,3.7676133E3,1.4698414E1,1.2105121E3,4.071196E3,2.3594188E2,4.8454746E3,6.87253E2,5.0766407E1,1.4613576E2,2.9819985E3,5.339008E2,2.1426462E3,1.5789346E2,6.0983295E2,4.6569464E2,6.206814E2,1.2443645E1,4.662222E2,1.9928899E3,6.5164487E3,1.0281086E4,1.432262E4,1.6506413E2,1.00883514E3,1.3235073E3,4.140135E1,9.7966986E2,1.1681655E2,1.8673313E3,7.289341E2,8.196161E2,8.549813E1,1.2382166E3,5.4925444E3,1.5221751E2,1.976609E2,2.4681131E2,2.2889873E2,3.9520767E3,2.6109912E2,5.3156866E2,2.015368E2,1.1195499E1,2.5827498E3,1.0515326E2,6.565331E1,6.851787E3,1.8874605E1,5.7326584E0,3.7618806E3,3.2857214E2,8.8193994E2,3.650516E3,4.2067984E2],"tree_param":{"num_deleted":"0","num_feature":"4","num_nodes":"109","size_leaf_vector":"1"}},{"base_weights":[2.2188649E-2,-4.8907143E-1,9.6338487E-1,3.9419973E-1,-7.831279E-1,6.363111E-1,1.2645775E0,-3.9075777E-2,5.9155554E-1,-1.0137764E0,-7.052242E-2,2.2549835E-1,8.2386833E-1,1.0415354E0,1.3506213E0,1.415386E-1,-9.117394E-2,9.698424E-1,3.634523E-2,-1.1089866E0,7.1244866E-1,-5.62271E-1,2.5134423E-1,-8.381692E-2,8.627054E-1,5.207383E-1,9.153028E-1,-2.129597E-1,1.0796562E0,-9.900466E-2,1.3544688E0,1.9406036E-1,-9.113922E-2,1.4737549E0,7.1331984E-1,2.6674777E-1,-8.744994E-1,-7.1258694E-1,-1.298354E0,-8.728688E-2,9.44989E-1,-9.104668E-2,-3.8652477E-1,1.4525674E-1,1.1827848E0,1.4159253E-1,-1.4081998E0,-9.72269E-2,9.054511E-1,-1.0140367E-1,6.1229545E-1,8.731961E-1,1.3720984E0,1.6800731E0,-1.0810025E-1,-1.0312565E-1,1.0901041E0,1.2657388E0,1.4612197E0,7.1264044E-3,7.315403E-2,-8.505544E-2,7.8274615E-2,-1.3054537E-2,6.1879188E-2,-8.742669E-2,1.987398E-2,-8.91865E-2,3.1589992E-2,-4.3923847E-2,3.2172415E-2,-6.978642E-2,-4.2133935E-2,-9.023907E-2,5.2156176E-2,7.30263E-2,-2.580089E-2,1.0084895E-2,-9.579428E-2,-9.510767E-2,6.3331045E-2,-2.3602673E-3,4.410505E-2,-3.356192E-2,-9.82436E-2,5.0229926E-2,-3.9427676E-3,3.5352483E-2,-2.8458593E-2,4.4573903E-2,-1.0049578E-1,7.273241E-2,-9.7384684E-2,8.772772E-2,-6.163275E-2,5.5649616E-2,9.886344E-3,5.8844637E-2,7.281129E-2,-8.54966E-2,7.316934E-2],"categories":[],"categories_nodes":[],"categories_segments":[],"categories_sizes":[],"default_left":[0,0,0,0,0,0,0,0,0,0,0,0,0,0,0,0,0,0,0,0,0,0,0,0,0,0,0,0,0,0,0,0,0,0,0,0,0,0,0,0,0,0,0,0,0,0,0,0,0,0,0,0,0,0,0,0,0,0,0,0,0,0,0,0,0,0,0,0,0,0,0,0,0,0,0,0,0,0,0,0,0,0,0,0,0,0,0,0,0,0,0,0,0,0,0,0,0,0,0,0,0],"id":4,"left_children":[1,3,5,7,9,11,13,15,17,19,21,23,25,27,29,31,-1,33,35,37,39,41,43,45,47,49,51,53,55,-1,57,59,-1,61,63,65,67,69,71,-1,73,-1,75,77,79,81,83,-1,85,-1,87,89,91,93,-1,-1,95,97,99,-1,-1,-1,-1,-1,-1,-1,-1,-1,-1,-1,-1,-1,-1,-1,-1,-1,-1,-1,-1,-1,-1,-1,-1,-1,-1,-1,-1,-1,-1,-1,-1,-1,-1,-1,-1,-1,-1,-1,-1,-1,-1],"loss_changes":[4.1049594E4,1.4358145E4,2.9573105E3,1.1807041E3,6.8164707E3,1.1091538E3,2.9858203E2,1.3931981E3,1.9924204E3,5.1502812E3,1.6054237E3,8.8981635E2,2.7348047E2,2.0853857E2,1.471914E2,4.0536627E2,0E0,7.282925E2,8.0722125E2,2.228082E3,9.3819305E2,8.868976E2,6.056217E2,9.077038E2,1.7879285E2,5.363056E2,1.4483594E2,4.806824E2,1.4103564E2,0E0,1.0484766E2,2.4988777E2,0E0,5.567427E2,1.9113265E3,8.094659E2,1.0646798E3,2.160521E3,8.9039453E2,0E0,4.0596143E2,0E0,8.4319727E2,6.407912E2,1.6449707E2,3.6335568E2,1.8010565E2,0E0,1.4196265E2,0E0,2.482702E2,3.6834912E2,1.779607E2,1.6514206E1,0E0,0E0,8.585449E1,1.025166E2,3.7592773E1,0E0,0E0,0E0,0E0,0E0,0E0,0E0,0E0,0E0,0E0,0E0,0E0,0E0,0E0,0E0,0E0,0E0,0E0,0E0,0E0,0E0,0E0,0E0,0E0,0E0,0E0,0E0,0E0,0E0,0E0,0E0,0E0,0E0,0E0,0E0,0E0,0E0,0E0,0E0,0E0,0E0,0E0],"parents":[2147483647,0,0,1,1,2,2,3,3,4,4,5,5,6,6,7,7,8,8,9,9,10,10,11,11,12,12,13,13,14,14,15,15,17,17,18,18,19,19,20,20,21,21,22,22,23,23,24,24,25,25,26,26,27,27,28,28,30,30,31,31,33,33,34,34,35,35,36,36,37,37,38,38,40,40,42,42,43,43,44,44,45,45,46,46,48,48,50,50,51,51,52,52,53,53,56,56,57,57,58,58],"right_children":[2,4,6,8,10,12,14,16,18,20,22,24,26,28,30,32,-1,34,36,38,40,42,44,46,48,50,52,54,56,-1,58,60,-1,62,64,66,68,70,72,-1,74,-1,76,78,80,82,84,-1,86,-1,88,90,92,94,-1,-1,96,98,100,-1,-1,-1,-1,-1,-1,-1,-1,-1,-1,-1,-1,-1,-1,-1,-1,-1,-1,-1,-1,-1,-1,-1,-1,-1,-1,-1,-1,-1,-1,-1,-1,-1,-1,-1,-1,-1,-1,-1,-1,-1,-1],"split_conditions":[1.7945633E1,1.520049E-1,3.85414E1,4.351138E-4,2.9112577E0,5.5972633E0,5.0093193E1,2.5792609E-3,8.6749723E-4,5.7839016E1,1.7898708E1,6.662295E1,3.3046513E1,8.1434846E-1,5.357195E1,7.5374373E-6,-9.117394E-2,4.3809428E-4,7.121266E-2,2.2781987E0,1.9524999E0,4.7107043E0,7.349153E1,4.8609795E1,1.9109959E1,6.720367E0,1.1397339E2,4.2852146E1,4.048295E1,-9.900466E-2,2.8822474E1,1.2222748E-1,-9.113922E-2,1.7166138E-3,8.583069E-4,2.9983814E-3,1.0735375E-1,8.885056E-1,8.842222E0,-8.728688E-2,1.1503696E-3,-9.104668E-2,4.830897E0,5.6347805E1,7.3136725E0,4.3777153E1,2.2968903E1,-9.72269E-2,3.407459E1,-1.0140367E-1,1.883638E1,1.02133415E2,3.535737E1,8.5234636E-4,-1.0810025E-1,-1.0312565E-1,3.369472E1,1.466067E2,5.494446E1,7.1264044E-3,7.315403E-2,-8.505544E-2,7.8274615E-2,-1.3054537E-2,6.1879188E-2,-8.742669E-2,1.987398E-2,-8.91865E-2,3.1589992E-2,-4.3923847E-2,3.2172415E-2,-6.978642E-2,-4.2133935E-2,-9.023907E-2,5.2156176E-2,7.30263E-2,-2.580089E-2,1.0084895E-2,-9.579428E-2,-9.510767E-2,6.3331045E-2,-2.3602673E-3,4.410505E-2,-3.356192E-2,-9.82436E-2,5.0229926E-2,-3.9427676E-3,3.5352483E-2,-2.8458593E-2,4.4573903E-2,-1.0049578E-1,7.273241E-2,-9.7384684E-2,8.772772E-2,-6.163275E-2,5.5649616E-2,9.886344E-3,5.8844637E-2,7.281129E-2,-8.54966E-2,7.316934E-2],"split_indices":[2,3,2,1,1,1,2,2,1,3,3,3,3,1,3,1,0,1,3,3,2,2,3,3,2,1,3,3,3,0,1,3,0,2,1,2,2,1,2,0,1,0,2,3,2,3,2,0,2,0,1,3,2,1,0,0,1,3,3,0,0,0,0,0,0,0,0,0,0,0,0,0,0,0,0,0,0,0,0,0,0,0,0,0,0,0,0,0,0,0,0,0,0,0,0,0,0,0,0,0,0],"split_type":[0,0,0,0,0,0,0,0,0,0,0,0,0,0,0,0,0,0,0,0,0,0,0,0,0,0,0,0,0,0,0,0,0,0,0,0,0,0,0,0,0,0,0,0,0,0,0,0,0,0,0,0,0,0,0,0,0,0,0,0,0,0,0,0,0,0,0,0,0,0,0,0,0,0,0,0,0,0,0,0,0,0,0,0,0,0,0,0,0,0,0,0,0,0,0,0,0,0,0,0,0],"sum_hessian":[8.530544E4,5.52785E4,3.0026936E4,1.3806609E4,4.147189E4,1.4396487E4,1.5630449E4,4.321024E3,9.485586E3,3.1330688E4,1.0141205E4,4.5132246E3,9.883263E3,4.3548784E3,1.127557E4,3.9246934E3,3.9633044E2,5.641239E3,3.8443467E3,2.9693307E4,1.6373806E3,4.011571E3,6.129634E3,3.0389268E3,1.4742979E3,2.2918508E3,7.5914116E3,1.2829564E2,4.2265825E3,1.2417478E1,1.1263153E4,3.823366E3,1.0132733E2,1.9013953E3,3.7398435E3,3.0687888E3,7.7555786E2,9.600823E3,2.0092484E4,1.4094478E2,1.4964359E3,4.9035754E2,3.5212134E3,5.503915E3,6.257186E2,2.5976934E3,4.4123334E2,2.1445036E1,1.4528529E3,7.873852E1,2.2131123E3,6.953372E3,6.380396E2,6.5153015E1,6.3142624E1,1.3356059E1,4.2132266E3,6.1577573E3,5.1053955E3,3.6752349E3,1.4813132E2,5.2905075E1,1.8484902E3,1.3084417E3,2.4314019E3,1.86192E2,2.882597E3,4.8351495E2,2.9204288E2,8.554646E3,1.0461768E3,1.655314E4,3.5393428E3,5.0965626E1,1.4454702E3,2.3001845E2,3.291195E3,5.358094E3,1.4582089E2,1.5980781E1,6.0973785E2,2.070692E3,5.2700134E2,1.9081929E2,2.5041403E2,1.3198829E3,1.3296997E2,2.0491694E3,1.6394287E2,6.9102446E3,4.31274E1,6.231073E2,1.4932325E1,6.3916245E1,1.2367728E0,4.1076245E3,1.0560227E2,4.204085E3,1.9536726E3,2.9482687E0,5.1024473E3],"tree_param":{"num_deleted":"0","num_feature":"4","num_nodes":"101","size_leaf_vector":"1"}},{"base_weights":[2.7603816E-2,-4.4170302E-1,8.898003E-1,3.792692E-1,-7.0589775E-1,-5.016442E-2,1.026413E0,-6.6388864E-4,5.622733E-1,-9.881069E-1,3.2787666E-1,-6.4517486E-1,1.0078229E0,8.4192073E-1,1.3142294E0,3.5198063E-1,-9.8022723E-1,9.6331173E-1,-5.0270725E-3,-1.0495347E0,8.7147456E-1,-2.8396633E-2,1.1182884E0,-7.5387186E-1,7.4803317E-1,3.8407245E-1,1.2727594E0,4.0876988E-1,1.0387232E0,7.7686495E-1,1.3369373E0,3.2006612E-1,1.7844146E0,-1.1351557E0,9.500043E-1,1.4506816E0,6.682574E-1,4.34669E-1,-6.7227566E-1,-7.769626E-1,-1.1911942E0,-8.299308E-1,1.3758124E0,-5.5992967E-1,7.1300614E-1,7.2034776E-1,1.255706E0,-5.452255E-1,-1.441374E0,-1.0194736E-1,1.3932593E0,1.3107188E0,-7.258824E-1,1.3226353E0,-9.952647E-2,-2.7339516E-2,7.381555E-1,8.8495004E-1,1.4016689E0,-1.03220165E-1,1.0726787E0,1.2314687E0,1.4171445E0,1.9267665E-2,-8.970682E-2,9.642915E-2,-6.536939E-2,-6.578032E-2,3.325441E-2,-8.377703E-2,8.709208E-2,-9.187477E-2,7.4738644E-2,-1.9038396E-3,6.0116548E-2,-4.4131264E-2,2.9524958E-2,-6.226779E-2,7.052014E-3,-4.7079283E-3,-5.2623924E-2,-6.8044476E-2,-4.2341374E-2,8.129861E-2,-9.0581864E-2,4.983644E-2,8.850102E-2,-6.2303882E-2,-1.7795606E-2,3.8742684E-2,-9.951662E-2,-5.420399E-4,7.627456E-2,7.256151E-2,4.545365E-2,-3.6142077E-2,5.3902924E-2,-9.4527684E-2,-3.420897E-2,8.69405E-2,-9.780421E-2,7.427409E-2,-9.6277885E-2,-9.8168485E-2,5.294433E-2,-9.384036E-2,6.823651E-2,2.9670516E-2,-3.2186832E-2,3.9105725E-2,-1.0905925E-1,4.4878006E-2,-1.0974487E-1,-1.0594747E-1,7.076727E-2,6.4364515E-2,-1.0588958E-1,5.58661E-2,7.33307E-2,-9.037054E-2,7.100236E-2],"categories":[],"categories_nodes":[],"categories_segments":[],"categories_sizes":[],"default_left":[0,0,0,0,0,0,0,1,0,0,0,0,0,0,0,1,0,0,0,0,0,0,0,0,0,0,0,0,0,0,0,1,0,0,0,0,0,0,0,0,0,0,0,0,0,0,0,0,0,0,0,0,0,0,0,0,0,0,0,0,0,0,0,0,0,0,0,0,0,0,0,0,0,0,0,0,0,0,0,0,0,0,0,0,0,0,0,0,0,0,0,0,0,0,0,0,0,0,0,0,0,0,0,0,0,0,0,0,0,0,0,0,0,0,0,0,0,0,0,0,0],"id":5,"left_children":[1,3,5,7,9,11,13,15,17,19,21,23,25,27,29,31,33,35,37,39,41,43,45,47,49,51,53,55,57,59,61,63,65,67,69,71,73,75,77,79,81,83,85,87,89,91,93,95,97,-1,99,101,103,105,-1,107,109,111,113,-1,115,117,119,-1,-1,-1,-1,-1,-1,-1,-1,-1,-1,-1,-1,-1,-1,-1,-1,-1,-1,-1,-1,-1,-1,-1,-1,-1,-1,-1,-1,-1,-1,-1,-1,-1,-1,-1,-1,-1,-1,-1,-1,-1,-1,-1,-1,-1,-1,-1,-1,-1,-1,-1,-1,-1,-1,-1,-1,-1,-1],"loss_changes":[3.44307E4,1.195114E4,3.8512832E3,9.327471E2,1.2161611E4,2.3970347E3,1.3893477E3,1.5071798E3,2.059885E3,3.7415098E3,2.5175718E3,3.6962787E2,2.2601733E2,1.3600781E3,1.2375391E2,1.4609131E2,3.4646143E2,7.6179346E2,1.1007083E3,1.2230703E3,9.001263E2,2.4292576E3,1.5099048E2,3.2357056E2,3.2091116E2,4.2270557E2,1.5914209E2,7.164864E2,6.111914E2,3.5272324E2,8.124805E1,4.3403198E2,3.358998E1,3.4833545E2,1.8245555E2,2.926211E2,1.2471434E3,4.6474713E2,6.94772E2,2.0398223E3,1.2176797E3,5.8198975E2,1.19055664E2,5.0215186E2,4.319088E2,4.2114005E2,1.3852466E2,5.014021E2,1.775586E2,0E0,1.703187E2,1.2945825E2,4.1557022E2,1.3020093E2,0E0,8.219247E2,3.663645E2,3.0141797E2,1.6015186E2,0E0,2.6179715E2,1.1231885E2,5.4661133E1,0E0,0E0,0E0,0E0,0E0,0E0,0E0,0E0,0E0,0E0,0E0,0E0,0E0,0E0,0E0,0E0,0E0,0E0,0E0,0E0,0E0,0E0,0E0,0E0,0E0,0E0,0E0,0E0,0E0,0E0,0E0,0E0,0E0,0E0,0E0,0E0,0E0,0E0,0E0,0E0,0E0,0E0,0E0,0E0,0E0,0E0,0E0,0E0,0E0,0E0,0E0,0E0,0E0,0E0,0E0,0E0,0E0,0E0],"parents":[2147483647,0,0,1,1,2,2,3,3,4,4,5,5,6,6,7,7,8,8,9,9,10,10,11,11,12,12,13,13,14,14,15,15,16,16,17,17,18,18,19,19,20,20,21,21,22,22,23,23,24,24,25,25,26,26,27,27,28,28,29,29,30,30,31,31,32,32,33,33,34,34,35,35,36,36,37,37,38,38,39,39,40,40,41,41,42,42,43,43,44,44,45,45,46,46,47,47,48,48,50,50,51,51,52,52,53,53,55,55,56,56,57,57,58,58,60,60,61,61,62,62],"right_children":[2,4,6,8,10,12,14,16,18,20,22,24,26,28,30,32,34,36,38,40,42,44,46,48,50,52,54,56,58,60,62,64,66,68,70,72,74,76,78,80,82,84,86,88,90,92,94,96,98,-1,100,102,104,106,-1,108,110,112,114,-1,116,118,120,-1,-1,-1,-1,-1,-1,-1,-1,-1,-1,-1,-1,-1,-1,-1,-1,-1,-1,-1,-1,-1,-1,-1,-1,-1,-1,-1,-1,-1,-1,-1,-1,-1,-1,-1,-1,-1,-1,-1,-1,-1,-1,-1,-1,-1,-1,-1,-1,-1,-1,-1,-1,-1,-1,-1,-1,-1,-1],"split_conditions":[5.425668E0,1.3688996E-1,2.4071714E1,4.351138E-4,3.5853752E1,5.514854E0,4.5995665E0,2.3639164E0,8.597489E-4,8.439305E0,3.8072848E0,1.6820877E1,6.7366133E0,4.9768047E1,6.954348E0,2.3516576E0,1.2222748E-1,4.3809428E-4,2.4234515E-2,2.9409373E0,9.690393E0,7.349153E1,4.395374E0,9.903151E0,2.2443031E1,5.7499332E0,1.277625E1,1.09933195E1,1.321062E2,5.214911E0,6.089661E0,2.0716803E0,9.014316E-3,7.2678776E0,5.359213E0,2.0351956E0,8.583069E-4,6.017857E-3,4.127232E0,2.3516576E0,1.83807E1,2.0983826E-1,2.7788591E1,1.7830411E0,3.2510815E0,8.8664215E1,1.9314011E0,9.574967E0,1.3321728E1,-1.0194736E-1,1.7729326E1,1.9188175E1,2.2443031E1,8.294011E0,-9.952647E-2,6.954348E0,4.3334417E0,4.4932437E0,1.1450654E0,-1.03220165E-1,6.7366133E0,2.8822474E1,7.180768E0,1.9267665E-2,-8.970682E-2,9.642915E-2,-6.536939E-2,-6.578032E-2,3.325441E-2,-8.377703E-2,8.709208E-2,-9.187477E-2,7.4738644E-2,-1.9038396E-3,6.0116548E-2,-4.4131264E-2,2.9524958E-2,-6.226779E-2,7.052014E-3,-4.7079283E-3,-5.2623924E-2,-6.8044476E-2,-4.2341374E-2,8.129861E-2,-9.0581864E-2,4.983644E-2,8.850102E-2,-6.2303882E-2,-1.7795606E-2,3.8742684E-2,-9.951662E-2,-5.420399E-4,7.627456E-2,7.256151E-2,4.545365E-2,-3.6142077E-2,5.3902924E-2,-9.4527684E-2,-3.420897E-2,8.69405E-2,-9.780421E-2,7.427409E-2,-9.6277885E-2,-9.8168485E-2,5.294433E-2,-9.384036E-2,6.823651E-2,2.9670516E-2,-3.2186832E-2,3.9105725E-2,-1.0905925E-1,4.4878006E-2,-1.0974487E-1,-1.0594747E-1,7.076727E-2,6.4364515E-2,-1.0588958E-1,5.58661E-2,7.33307E-2,-9.037054E-2,7.100236E-2],"split_indices":[1,3,3,1,3,0,0,0,1,0,0,1,0,3,1,0,3,1,3,3,3,3,0,1,3,0,1,1,3,0,0,0,3,0,0,0,1,3,0,0,3,3,3,0,0,3,1,1,1,0,1,3,3,3,0,1,0,0,0,0,0,1,1,0,0,0,0,0,0,0,0,0,0,0,0,0,0,0,0,0,0,0,0,0,0,0,0,0,0,0,0,0,0,0,0,0,0,0,0,0,0,0,0,0,0,0,0,0,0,0,0,0,0,0,0,0,0,0,0,0,0],"split_type":[0,0,0,0,0,0,0,0,0,0,0,0,0,0,0,0,0,0,0,0,0,0,0,0,0,0,0,0,0,0,0,0,0,0,0,0,0,0,0,0,0,0,0,0,0,0,0,0,0,0,0,0,0,0,0,0,0,0,0,0,0,0,0,0,0,0,0,0,0,0,0,0,0,0,0,0,0,0,0,0,0,0,0,0,0,0,0,0,0,0,0,0,0,0,0,0,0,0,0,0,0,0,0,0,0,0,0,0,0,0,0,0,0,0,0,0,0,0,0,0,0],"sum_hessian":[8.508884E4,5.5098418E4,2.9990428E4,1.3414153E4,4.168426E4,3.8057246E3,2.6184703E4,4.3611035E3,9.053049E3,3.2745219E4,8.939046E3,2.4360718E3,1.3696528E3,1.5958883E4,1.0225821E4,3.207161E3,1.1539429E3,5.3033115E3,3.7497375E3,3.1698553E4,1.0466659E3,6.1623623E3,2.7766833E3,2.2601921E3,1.7587944E2,4.09053E2,9.6059985E2,4.986646E3,1.0972237E4,4.160309E2,9.80979E3,3.1384597E3,6.870116E1,1.0685856E3,8.5357216E1,1.9984164E3,3.3048953E3,2.2604922E3,1.4892455E3,1.0842531E4,2.0856021E4,2.3917E2,8.0749585E2,3.5893198E3,2.5730422E3,7.143305E2,2.0623528E3,1.735337E3,5.248551E2,3.2657795E1,1.4322165E2,2.2283675E2,1.8621625E2,9.4672485E2,1.3874975E1,2.1461035E3,2.8405427E3,7.7093633E3,3.2628738E3,3.8666218E1,3.773647E2,4.244641E3,5.565149E3,3.0452395E3,9.3220116E1,6.599986E1,2.7012942E0,9.7147705E2,9.710854E1,1.9519423E1,6.583779E1,2.5904028E1,1.9725123E3,1.4233651E3,1.8815302E3,2.3862619E2,2.021866E3,8.733399E2,6.159056E2,3.1176006E3,7.7249307E3,1.3969332E4,6.8866885E3,6.8114334E1,1.7105566E2,4.134433E2,3.9405258E2,8.214677E2,2.7678523E3,2.5161897E3,5.6852528E1,3.748752E2,3.3945526E2,1.3165459E3,7.458069E2,1.5646873E3,1.706498E2,3.284918E2,1.9636333E2,1.3026329E2,1.2958365E1,2.1193309E2,1.0903664E1,1.099094E2,7.630685E1,1.1728234E1,9.3499664E2,1.0692949E3,1.0768085E3,2.799126E3,4.1416725E1,7.6786323E3,3.0730688E1,1.2030399E1,3.2508435E3,3.541395E2,2.322519E1,2.861387E3,1.3832542E3,4.44563E0,5.560703E3],"tree_param":{"num_deleted":"0","num_feature":"4","num_nodes":"121","size_leaf_vector":"1"}},{"base_weights":[6.8737967E-3,-4.4640404E-1,9.186996E-1,4.2446077E-1,-7.429761E-1,7.049266E-1,1.2460202E0,3.6165258E-1,1.2302976E0,-8.579193E-1,5.8987594E-1,3.887925E-1,1.0110412E0,1.1500932E0,1.4396815E0,5.190328E-1,7.886464E-2,1.4214087E0,-9.347105E-2,-9.519848E-1,6.3694084E-1,-2.5089246E-1,1.1374314E0,4.9889538E-1,-1.1633494E0,9.1189337E-1,1.3075541E0,8.546263E-1,1.3179728E0,-8.912387E-2,1.4427632E0,5.542536E-1,-9.583802E-2,-1.0058699E-1,1.5190187E-1,-9.5766276E-2,1.4945828E0,-1.08826E0,-2.7383238E-1,-8.43294E-2,7.7263E-1,-6.2797284E-1,1.7858479E0,8.419093E-1,1.4580016E0,4.0844473E-1,1.3381815E0,-9.808227E-2,-5.469664E-1,5.672719E-1,1.0416181E0,1.3732576E0,5.6659275E-1,-1.04914665E-1,8.861897E-1,-1.09379925E-1,1.3259149E0,1.4731332E0,1.1492249E0,2.0061363E-2,5.213517E-2,5.0800037E-2,1.3130975E-3,8.083086E-2,2.3425825E-2,-3.6058214E-2,-6.2670015E-2,-5.2809197E-2,1.2720373E-2,1.5007327E-2,5.2130353E-2,5.3737443E-2,-4.6465863E-2,-8.200744E-2,9.817158E-2,-9.499423E-2,4.933199E-2,7.4379444E-2,-9.853699E-2,-9.907063E-2,2.15069E-2,-9.606436E-2,6.889225E-2,3.8665038E-2,-1.0949129E-1,3.601334E-2,-1.4776215E-2,5.242111E-2,-1.0692584E-1,-8.4536515E-2,6.913548E-2,-1.12599686E-1,6.477214E-2,6.2126357E-2,3.678172E-2,6.6699825E-2,-9.639495E-2,7.531665E-2,7.118794E-2,-1.1606623E-1,6.312813E-2],"categories":[],"categories_nodes":[],"categories_segments":[],"categories_sizes":[],"default_left":[0,0,0,1,0,0,0,0,0,0,0,0,0,0,0,1,0,0,0,0,0,0,0,0,0,0,0,0,0,0,0,0,0,0,0,0,0,0,0,0,0,0,0,0,0,0,0,0,0,0,0,0,0,0,0,0,0,0,0,0,0,0,0,0,0,0,0,0,0,0,0,0,0,0,0,0,0,0,0,0,0,0,0,0,0,0,0,0,0,0,0,0,0,0,0,0,0,0,0,0,0],"id":6,"left_children":[1,3,5,7,9,11,13,15,17,19,21,23,25,27,29,31,33,35,-1,37,39,41,43,45,47,49,51,53,55,-1,57,59,-1,-1,61,-1,63,65,67,-1,69,71,73,75,77,79,81,-1,83,85,87,89,91,-1,93,-1,95,97,99,-1,-1,-1,-1,-1,-1,-1,-1,-1,-1,-1,-1,-1,-1,-1,-1,-1,-1,-1,-1,-1,-1,-1,-1,-1,-1,-1,-1,-1,-1,-1,-1,-1,-1,-1,-1,-1,-1,-1,-1,-1,-1],"loss_changes":[3.454729E4,1.4420307E4,1.9411836E3,7.174546E2,6.3812305E3,1.6246035E3,2.0202344E2,5.856421E2,6.0996106E2,5.3921797E3,1.5228059E3,1.4125731E3,2.495918E2,3.6281152E2,3.8595703E1,7.263745E2,7.189403E2,2.3877405E2,0E0,3.3334375E3,7.171487E2,1.00351514E3,1.885293E2,5.85187E2,2.68365E2,2.85354E2,1.03177246E2,2.4989465E2,1.3311133E2,0E0,3.0623047E1,6.225654E2,0E0,0E0,4.9378174E2,0E0,1.1770068E2,1.82E3,2.4953218E3,0E0,2.7342163E2,5.664536E2,1.274259E2,4.1639E2,1.0026221E2,3.6202466E2,9.9634155E1,0E0,6.749133E2,2.3140607E2,1.0276709E2,5.912085E1,3.6371106E2,0E0,1.403833E2,0E0,1.2529297E2,3.234375E0,1.3840906E2,0E0,0E0,0E0,0E0,0E0,0E0,0E0,0E0,0E0,0E0,0E0,0E0,0E0,0E0,0E0,0E0,0E0,0E0,0E0,0E0,0E0,0E0,0E0,0E0,0E0,0E0,0E0,0E0,0E0,0E0,0E0,0E0,0E0,0E0,0E0,0E0,0E0,0E0,0E0,0E0,0E0,0E0],"parents":[2147483647,0,0,1,1,2,2,3,3,4,4,5,5,6,6,7,7,8,8,9,9,10,10,11,11,12,12,13,13,14,14,15,15,16,16,17,17,19,19,20,20,21,21,22,22,23,23,24,24,25,25,26,26,27,27,28,28,30,30,31,31,34,34,36,36,37,37,38,38,40,40,41,41,42,42,43,43,44,44,45,45,46,46,48,48,49,49,50,50,51,51,52,52,54,54,56,56,57,57,58,58],"right_children":[2,4,6,8,10,12,14,16,18,20,22,24,26,28,30,32,34,36,-1,38,40,42,44,46,48,50,52,54,56,-1,58,60,-1,-1,62,-1,64,66,68,-1,70,72,74,76,78,80,82,-1,84,86,88,90,92,-1,94,-1,96,98,100,-1,-1,-1,-1,-1,-1,-1,-1,-1,-1,-1,-1,-1,-1,-1,-1,-1,-1,-1,-1,-1,-1,-1,-1,-1,-1,-1,-1,-1,-1,-1,-1,-1,-1,-1,-1,-1,-1,-1,-1,-1,-1],"split_conditions":[1.9528255E1,1.520049E-1,5.0093193E1,7.1125755E0,6.9696445E0,3.4862952E0,5.6878357E0,3.415346E-3,2.4234515E-2,6.102229E1,6.5524044E0,3.104839E0,6.7366133E0,6.8885574E1,5.6347805E1,5.8830624E0,3.4393216E-3,1.7057554E-3,-9.347105E-2,1.2063707E1,1.9524999E0,2.9120417E1,8.911599E0,1.321062E2,2.9736E1,2.6344982E1,7.110163E1,1.238902E0,7.609399E1,-8.912387E-2,8.439305E0,2.573145E-3,-9.583802E-2,-1.0058699E-1,7.28572E-3,-9.5766276E-2,6.841104E-3,2.4572723E0,2.9823706E0,-8.43294E-2,7.8904724E1,3.0399024E-1,8.911599E0,8.161382E0,3.4075718E1,1.0840421E0,1.1955097E0,-9.808227E-2,3.2921444E1,2.418649E1,6.624943E0,2.1523073E1,1.1397339E2,-1.04914665E-1,6.662295E1,-1.09379925E-1,5.359213E0,1.0753229E2,9.280229E1,2.0061363E-2,5.213517E-2,5.0800037E-2,1.3130975E-3,8.083086E-2,2.3425825E-2,-3.6058214E-2,-6.2670015E-2,-5.2809197E-2,1.2720373E-2,1.5007327E-2,5.2130353E-2,5.3737443E-2,-4.6465863E-2,-8.200744E-2,9.817158E-2,-9.499423E-2,4.933199E-2,7.4379444E-2,-9.853699E-2,-9.907063E-2,2.15069E-2,-9.606436E-2,6.889225E-2,3.8665038E-2,-1.0949129E-1,3.601334E-2,-1.4776215E-2,5.242111E-2,-1.0692584E-1,-8.4536515E-2,6.913548E-2,-1.12599686E-1,6.477214E-2,6.2126357E-2,3.678172E-2,6.6699825E-2,-9.639495E-2,7.531665E-2,7.118794E-2,-1.1606623E-1,6.312813E-2],"split_indices":[2,3,2,0,0,0,0,2,3,3,2,0,0,2,3,0,2,2,0,2,2,3,0,3,2,2,3,0,3,0,0,2,0,0,3,0,3,3,0,0,3,3,0,2,3,0,0,0,2,2,0,3,3,0,3,0,0,3,3,0,0,0,0,0,0,0,0,0,0,0,0,0,0,0,0,0,0,0,0,0,0,0,0,0,0,0,0,0,0,0,0,0,0,0,0,0,0,0,0,0,0],"split_type":[0,0,0,0,0,0,0,0,0,0,0,0,0,0,0,0,0,0,0,0,0,0,0,0,0,0,0,0,0,0,0,0,0,0,0,0,0,0,0,0,0,0,0,0,0,0,0,0,0,0,0,0,0,0,0,0,0,0,0,0,0,0,0,0,0,0,0,0,0,0,0,0,0,0,0,0,0,0,0,0,0,0,0,0,0,0,0,0,0,0,0,0,0,0,0,0,0,0,0,0,0],"sum_hessian":[8.35848E4,5.5831098E4,2.7753695E4,1.4183052E4,4.1648047E4,1.679079E4,1.0962905E4,1.3158877E4,1.0241746E3,3.834186E4,3.3061868E3,8.261327E3,8.529461E3,7.336049E3,3.6268567E3,8.453442E3,4.705435E3,9.652068E2,5.8967743E1,3.6072336E4,2.2695244E3,1.304175E3,2.0020118E3,7.714752E3,5.465757E2,6.3951353E3,2.134326E3,2.660203E3,4.675846E3,2.9138002E0,3.6239429E3,8.333712E3,1.19730515E2,1.5794354E2,4.5474917E3,2.0172388E1,9.450344E2,3.003598E4,6.036355E3,1.24592026E2,2.1449324E3,1.101024E3,2.0315097E2,1.0435903E3,9.584215E2,6.965554E3,7.4919763E2,2.3719495E2,3.0938074E2,1.750418E3,4.6447173E3,1.9596997E3,1.7462628E2,2.744136E1,2.6327615E3,9.949068E0,4.665897E3,3.280516E3,3.4342682E2,6.347063E3,1.9866486E3,5.7637036E2,3.971121E3,8.440701E2,1.00964294E2,9.321115E3,2.0714865E4,2.4325776E3,3.6037776E3,7.807185E2,1.3642139E3,1.6517122E2,9.3585284E2,9.605366E0,1.9354561E2,5.1717598E1,9.918727E2,9.5078314E2,7.638335E0,6.1846424E1,6.903708E3,8.436808E0,7.407608E2,1.718248E2,1.3755594E2,1.4869165E3,2.6350153E2,4.6354697E3,9.247722E0,5.4797425E0,1.95422E3,3.544904E1,1.3917725E2,7.7981824E2,1.8529431E3,4.6549253E3,1.0971588E1,1.9439077E3,1.3366084E3,1.0244521E1,3.331823E2],"tree_param":{"num_deleted":"0","num_feature":"4","num_nodes":"101","size_leaf_vector":"1"}},{"base_weights":[-2.266894E-2,-4.528089E-1,8.048858E-1,2.8875583E-1,-7.4407136E-1,3.334379E-1,1.0215383E0,4.4839245E-1,-1.1366966E-1,-9.4127005E-1,-3.1501338E-2,-3.641856E-1,5.7150584E-1,8.15855E-1,1.2698187E0,3.6760762E-1,1.3245285E0,-2.5173855E-1,1.8807906E0,-1.100445E0,-3.8895378E-1,-3.301256E-1,7.9393053E-1,1.8257275E-2,-1.0968477E0,4.2837793E-1,1.1131485E0,4.4724852E-1,1.103409E0,-1.0624117E-1,1.2748785E0,3.9805123E-1,-9.6637934E-2,-9.130955E-2,1.4011692E0,7.1153617E-1,-5.030587E-1,2.03152E0,-8.108695E-2,-7.1791774E-1,-1.2259035E0,-1.2049912E0,3.4105057E-1,-6.557623E-1,7.547275E-1,5.326603E-1,1.6506612E0,-1.1566728E0,3.491175E-1,-1.6368309E0,6.651817E-1,-7.968964E-2,9.019027E-1,1.2308321E0,-1.7768598E-1,4.9243125E-1,-1.1638345E-1,9.0199095E-1,1.3062189E0,1.1635135E0,1.3435543E0,-2.7407518E-2,2.276737E-2,7.835848E-2,1.15300445E-2,-8.48549E-2,4.0906433E-2,-4.0550645E-2,8.387882E-3,-6.503794E-2,1.03380516E-1,-4.2798053E-2,3.3271775E-2,-6.601898E-2,-4.7491968E-2,-4.296328E-2,-7.528614E-2,-1.154373E-2,3.0136598E-2,-5.7104032E-2,1.5076672E-3,-8.117352E-2,4.487191E-2,7.0109696E-4,5.6052323E-2,8.424892E-2,-8.558244E-2,9.493774E-2,-9.765338E-2,-3.049602E-2,3.7700858E-2,-3.6254253E-2,-1.02289796E-1,6.419179E-2,-1.04684554E-1,-1.8074378E-2,4.233756E-2,4.626113E-2,-1.07905805E-1,6.2267322E-2,-9.6061856E-2,7.26844E-2,-1.13569714E-1,-2.3695685E-2,2.808839E-2,-9.808218E-2,4.5969106E-2,-8.801144E-2,6.550832E-2,6.100413E-2,-1.6143357E-2,5.948635E-2,6.949532E-2],"categories":[],"categories_nodes":[],"categories_segments":[],"categories_sizes":[],"default_left":[0,0,0,0,0,0,0,1,0,0,0,0,0,0,0,1,0,0,0,0,0,0,0,0,0,0,0,0,0,0,0,0,0,0,0,0,0,0,0,0,0,0,0,0,0,0,0,0,0,0,0,0,0,0,0,0,0,0,0,0,0,0,0,0,0,0,0,0,0,0,0,0,0,0,0,0,0,0,0,0,0,0,0,0,0,0,0,0,0,0,0,0,0,0,0,0,0,0,0,0,0,0,0,0,0,0,0,0,0,0,0,0,0],"id":7,"left_children":[1,3,5,7,9,11,13,15,17,19,21,23,25,27,29,31,33,35,37,39,41,43,45,47,49,51,53,55,57,-1,59,61,-1,-1,63,65,67,69,-1,71,73,75,77,79,81,83,85,87,89,91,93,95,97,99,101,103,-1,105,107,109,111,-1,-1,-1,-1,-1,-1,-1,-1,-1,-1,-1,-1,-1,-1,-1,-1,-1,-1,-1,-1,-1,-1,-1,-1,-1,-1,-1,-1,-1,-1,-1,-1,-1,-1,-1,-1,-1,-1,-1,-1,-1,-1,-1,-1,-1,-1,-1,-1,-1,-1,-1,-1],"loss_changes":[2.9009531E4,1.1582364E4,2.8465195E3,9.7156934E2,5.4101504E3,1.457935E3,9.741367E2,7.658921E2,1.1834692E3,2.650748E3,2.0576357E3,6.2592944E2,5.068706E2,1.1067935E3,1.5128906E2,6.9514026E2,2.2319788E2,9.7325104E2,1.5019598E2,1.1225508E3,4.0203213E3,2.165976E3,4.9552527E2,5.7132574E2,7.3003357E2,1.2458387E3,2.0791809E2,5.753535E2,2.38521E2,0E0,6.45E1,5.3081006E2,0E0,0E0,1.7308167E2,2.1498639E2,6.586666E2,3.4826416E1,0E0,1.105061E3,4.5846484E2,3.3000928E2,5.3332263E2,1.5729006E3,4.8192084E2,5.190327E2,6.2628906E1,7.8950916E2,4.4574872E2,2.1728308E2,3.1062955E2,6.526841E2,1.9325806E2,5.972412E1,3.9647324E2,3.0226538E2,0E0,1.4858252E2,3.767285E1,2.7806787E2,3.6398438E1,0E0,0E0,0E0,0E0,0E0,0E0,0E0,0E0,0E0,0E0,0E0,0E0,0E0,0E0,0E0,0E0,0E0,0E0,0E0,0E0,0E0,0E0,0E0,0E0,0E0,0E0,0E0,0E0,0E0,0E0,0E0,0E0,0E0,0E0,0E0,0E0,0E0,0E0,0E0,0E0,0E0,0E0,0E0,0E0,0E0,0E0,0E0,0E0,0E0,0E0,0E0,0E0],"parents":[2147483647,0,0,1,1,2,2,3,3,4,4,5,5,6,6,7,7,8,8,9,9,10,10,11,11,12,12,13,13,14,14,15,15,16,16,17,17,18,18,19,19,20,20,21,21,22,22,23,23,24,24,25,25,26,26,27,27,28,28,30,30,31,31,34,34,35,35,36,36,37,37,39,39,40,40,41,41,42,42,43,43,44,44,45,45,46,46,47,47,48,48,49,49,50,50,51,51,52,52,53,53,54,54,55,55,57,57,58,58,59,59,60,60],"right_children":[2,4,6,8,10,12,14,16,18,20,22,24,26,28,30,32,34,36,38,40,42,44,46,48,50,52,54,56,58,-1,60,62,-1,-1,64,66,68,70,-1,72,74,76,78,80,82,84,86,88,90,92,94,96,98,100,102,104,-1,106,108,110,112,-1,-1,-1,-1,-1,-1,-1,-1,-1,-1,-1,-1,-1,-1,-1,-1,-1,-1,-1,-1,-1,-1,-1,-1,-1,-1,-1,-1,-1,-1,-1,-1,-1,-1,-1,-1,-1,-1,-1,-1,-1,-1,-1,-1,-1,-1,-1,-1,-1,-1,-1,-1],"split_conditions":[1.7945633E1,2.7807966E-1,2.9736E1,4.2542953E-2,2.737135E1,2.4459E0,4.269985E0,7.1125755E0,2.5654435E-1,4.8224373E0,4.127232E0,2.2968903E1,6.163256E0,5.0093193E1,3.3552242E1,6.163256E0,1.7057554E-3,1.7285346E-3,3.6784422E0,2.0214856E0,4.027782E0,7.110163E1,8.911599E0,1.9528255E1,8.8664215E1,4.5557705E1,4.6522873E1,4.046589E0,1.321062E2,-1.0624117E-1,5.628681E0,2.05984E0,-9.6637934E-2,-9.130955E-2,6.841104E-3,8.523463E-4,1.0735375E-1,1.9842814E0,-8.108695E-2,1.5167415E0,7.64246E0,2.2781987E0,1.2867498E1,1.2534899E1,1.9524999E0,4.6522873E1,1.5246788E1,8.973774E-1,1.8528403E0,2.418649E1,1.02133415E2,2.7098635E1,1.2180902E2,2.8825006E1,6.249876E0,3.9048946E1,-1.1638345E-1,1.1450654E0,8.973774E-1,5.359213E0,4.4607914E1,-2.7407518E-2,2.276737E-2,7.835848E-2,1.15300445E-2,-8.48549E-2,4.0906433E-2,-4.0550645E-2,8.387882E-3,-6.503794E-2,1.03380516E-1,-4.2798053E-2,3.3271775E-2,-6.601898E-2,-4.7491968E-2,-4.296328E-2,-7.528614E-2,-1.154373E-2,3.0136598E-2,-5.7104032E-2,1.5076672E-3,-8.117352E-2,4.487191E-2,7.0109696E-4,5.6052323E-2,8.424892E-2,-8.558244E-2,9.493774E-2,-9.765338E-2,-3.049602E-2,3.7700858E-2,-3.6254253E-2,-1.02289796E-1,6.419179E-2,-1.04684554E-1,-1.8074378E-2,4.233756E-2,4.626113E-2,-1.07905805E-1,6.2267322E-2,-9.6061856E-2,7.26844E-2,-1.13569714E-1,-2.3695685E-2,2.808839E-2,-9.808218E-2,4.5969106E-2,-8.801144E-2,6.550832E-2,6.100413E-2,-1.6143357E-2,5.948635E-2,6.949532E-2],"split_indices":[2,3,2,3,3,0,0,0,2,0,0,2,0,2,3,0,2,2,0,3,2,3,0,2,3,3,3,0,3,0,0,0,0,0,3,2,2,0,0,2,2,3,3,2,2,3,2,0,0,2,3,2,3,2,0,3,0,0,0,0,2,0,0,0,0,0,0,0,0,0,0,0,0,0,0,0,0,0,0,0,0,0,0,0,0,0,0,0,0,0,0,0,0,0,0,0,0,0,0,0,0,0,0,0,0,0,0,0,0,0,0,0,0],"split_type":[0,0,0,0,0,0,0,0,0,0,0,0,0,0,0,0,0,0,0,0,0,0,0,0,0,0,0,0,0,0,0,0,0,0,0,0,0,0,0,0,0,0,0,0,0,0,0,0,0,0,0,0,0,0,0,0,0,0,0,0,0,0,0,0,0,0,0,0,0,0,0,0,0,0,0,0,0,0,0,0,0,0,0,0,0,0,0,0,0,0,0,0,0,0,0,0,0,0,0,0,0,0,0,0,0,0,0,0,0,0,0,0,0],"sum_hessian":[8.1493586E4,5.362254E4,2.787105E4,1.512183E4,3.8500707E4,8.776163E3,1.9094887E4,1.0826854E4,4.294977E3,3.015516E4,8.345547E3,2.232784E3,6.543379E3,1.044566E4,8.649227E3,9.914133E3,9.127207E2,4.0177195E3,2.7725763E2,2.3408072E4,6.74709E3,6.128854E3,2.216693E3,1.4676561E3,7.651279E2,5.1771255E3,1.3662534E3,4.578798E3,5.8668623E3,1.2249449E1,8.636978E3,9.785456E3,1.2867609E2,2.1132425E1,8.915883E2,8.309549E2,3.1867646E3,2.6622098E2,1.1036667E1,5.7828066E3,1.7625266E4,3.1855088E3,3.5615808E3,4.714203E3,1.414651E3,1.6999078E3,5.1678534E2,3.2193274E2,1.1457234E3,5.8570624E2,1.7942169E2,2.4978708E3,2.6792546E3,1.2521437E3,1.1410976E2,4.5062476E3,7.255065E1,2.9462627E3,2.9205996E3,3.3013801E3,5.335597E3,5.582259E2,9.22723E3,7.8055725E2,1.1103105E2,3.4582573E1,7.963723E2,2.183958E3,1.00280664E3,2.4769797E0,2.63744E2,5.2584526E3,5.2435406E2,1.3128559E4,4.4967065E3,1.4836915E3,1.7018173E3,1.1180697E3,2.4435112E3,2.758058E3,1.956145E3,7.949717E1,1.3351538E3,9.0404926E2,7.958586E2,5.120579E2,4.7274303E0,6.627595E1,2.556568E2,3.399701E2,8.057533E2,1.822257E2,4.0348053E2,1.4699414E2,3.242755E1,1.9157593E3,5.821117E2,2.6596833E3,1.957141E1,1.2470065E3,5.1371717E0,6.430799E1,4.9801765E1,3.0129248E2,4.204955E3,1.7110107E1,2.9291526E3,3.182994E0,2.9174165E3,3.180515E3,1.2086539E2,1.2416481E3,4.093949E3],"tree_param":{"num_deleted":"0","num_feature":"4","num_nodes":"113","size_leaf_vector":"1"}},{"base_weights":[-3.7836898E-3,-4.71156E-1,7.04508E-1,3.2296795E-1,-7.6111364E-1,1.3797194E-1,8.7744945E-1,3.746036E-1,-8.7636626E-1,-8.1587666E-1,8.518374E-1,-2.6149365E-1,7.4766695E-1,7.0522916E-1,1.1380259E0,6.9587685E-2,5.4119676E-1,-8.692636E-2,4.457282E-1,-9.871306E-1,-4.850933E-1,-8.8076815E-2,1.0381614E0,-5.926323E-3,-7.5711817E-1,5.550112E-1,1.2283783E0,1.8665564E-1,7.5977063E-1,-1.13549106E-1,1.1497142E0,3.081904E-1,-1.369602E0,1.3498987E0,3.269081E-1,-8.133501E-2,9.614804E-1,-3.0096713E-1,-1.0538479E0,4.7243312E-1,-6.126058E-1,-7.772954E-2,1.1256441E0,-9.0448415E-1,3.3077848E-1,5.7992533E-2,-1.8715446E0,7.48032E-1,3.501098E-3,1.2461218E0,-1.006585E-1,3.1957877E-1,-1.0013612E-1,7.1975946E-1,1.3611032E0,1.0776753E0,1.3394438E0,1.0806431E-2,5.294568E-2,-3.818006E-2,-8.653852E-2,-8.445745E-2,7.240183E-2,-1.1002869E-2,2.2950511E-2,7.6622926E-2,-9.177544E-2,-4.5851395E-2,2.7712703E-2,-5.555121E-2,-2.1493075E-2,-8.369131E-2,2.911785E-2,-4.4898912E-2,-1.3151552E-2,5.9472807E-2,-1.0603439E-1,1.875413E-2,-7.031896E-2,-9.5468365E-2,2.327939E-2,-8.984782E-2,1.916591E-2,-9.211368E-2,-1.1285736E-1,-9.850141E-2,4.007999E-2,-1.0551955E-1,4.1327942E-2,-7.8598864E-2,6.271863E-2,-4.3060366E-2,2.637367E-2,3.7341475E-2,-1.3893977E-3,-1.0211622E-1,6.966097E-2,4.477837E-2,5.591594E-2,-1.2176712E-1,6.78194E-2],"categories":[],"categories_nodes":[],"categories_segments":[],"categories_sizes":[],"default_left":[0,0,0,0,0,0,0,0,0,0,0,0,0,0,0,0,0,0,0,0,0,0,0,0,0,0,0,0,0,0,0,0,0,0,0,0,0,0,0,0,0,0,0,0,0,0,0,0,0,0,0,0,0,0,0,0,0,0,0,0,0,0,0,0,0,0,0,0,0,0,0,0,0,0,0,0,0,0,0,0,0,0,0,0,0,0,0,0,0,0,0,0,0,0,0,0,0,0,0,0,0],"id":8,"left_children":[1,3,5,7,9,11,13,15,17,19,21,23,25,27,29,31,33,-1,35,37,39,-1,41,43,45,47,49,51,53,-1,55,57,59,61,63,-1,65,67,69,71,73,-1,75,77,79,81,83,85,87,89,-1,91,-1,93,95,97,99,-1,-1,-1,-1,-1,-1,-1,-1,-1,-1,-1,-1,-1,-1,-1,-1,-1,-1,-1,-1,-1,-1,-1,-1,-1,-1,-1,-1,-1,-1,-1,-1,-1,-1,-1,-1,-1,-1,-1,-1,-1,-1,-1,-1],"loss_changes":[2.7059959E4,1.134E4,3.1837725E3,8.160962E2,3.1872402E3,1.8514485E3,1.1164473E3,6.41724E2,6.20886E2,1.9760371E3,5.7889606E2,5.817694E2,2.779923E2,4.2388672E2,3.9728613E2,1.5328295E3,1.4150728E3,0E0,2.3193669E2,1.0520625E3,1.4537268E3,0E0,2.528092E2,9.174437E2,1.4195468E3,2.2886737E2,5.1977905E1,4.1623285E2,3.2539258E2,0E0,1.3348438E2,2.6438495E2,1.3761816E2,5.1265405E2,4.6676233E2,0E0,2.7943326E2,1.0745452E3,7.469844E2,3.3115393E2,1.0477812E3,0E0,2.2445056E2,5.3134955E2,6.6703516E2,5.458984E2,3.2927246E0,2.3345929E2,9.7325574E2,2.1875977E1,0E0,3.311598E2,0E0,2.5743994E2,9.522412E1,5.1995117E1,1.7680713E2,0E0,0E0,0E0,0E0,0E0,0E0,0E0,0E0,0E0,0E0,0E0,0E0,0E0,0E0,0E0,0E0,0E0,0E0,0E0,0E0,0E0,0E0,0E0,0E0,0E0,0E0,0E0,0E0,0E0,0E0,0E0,0E0,0E0,0E0,0E0,0E0,0E0,0E0,0E0,0E0,0E0,0E0,0E0,0E0],"parents":[2147483647,0,0,1,1,2,2,3,3,4,4,5,5,6,6,7,7,8,8,9,9,10,10,11,11,12,12,13,13,14,14,15,15,16,16,18,18,19,19,20,20,22,22,23,23,24,24,25,25,26,26,27,27,28,28,30,30,31,31,32,32,33,33,34,34,36,36,37,37,38,38,39,39,40,40,42,42,43,43,44,44,45,45,46,46,47,47,48,48,49,49,51,51,53,53,54,54,55,55,56,56],"right_children":[2,4,6,8,10,12,14,16,18,20,22,24,26,28,30,32,34,-1,36,38,40,-1,42,44,46,48,50,52,54,-1,56,58,60,62,64,-1,66,68,70,72,74,-1,76,78,80,82,84,86,88,90,-1,92,-1,94,96,98,100,-1,-1,-1,-1,-1,-1,-1,-1,-1,-1,-1,-1,-1,-1,-1,-1,-1,-1,-1,-1,-1,-1,-1,-1,-1,-1,-1,-1,-1,-1,-1,-1,-1,-1,-1,-1,-1,-1,-1,-1,-1,-1,-1,-1],"split_conditions":[1.4070531E1,1.3688996E-1,5.265105E0,5.19124E-2,7.349153E1,6.662295E1,4.707436E1,4.351138E-4,7.259846E-2,8.5220927E-1,4.7517726E-3,2.0058768E0,6.237119E1,2.3730282E1,5.494446E1,1.7106533E-3,4.3809428E-4,-8.692636E-2,9.870827E-2,3.0399024E-1,2.9409373E0,-8.8076815E-2,1.9524999E0,1.7945633E1,3.0457863E1,2.3036897E0,4.966247E0,2.2734327E1,1.321062E2,-1.13549106E-1,9.4119316E1,2.4234515E-2,7.28572E-3,1.7166138E-3,8.583069E-4,-8.133501E-2,1.039058E-1,1.593142E-1,8.671433E0,1.0570467E0,1.8133957E1,-7.772954E-2,7.645572E0,1.4653847E1,2.5129795E1,2.813238E0,3.85414E1,8.404253E-4,9.280229E1,7.349153E1,-1.006585E-1,7.894987E0,-1.0013612E-1,9.7168655E1,8.14698E0,1.3321728E1,1.1397339E2,1.0806431E-2,5.294568E-2,-3.818006E-2,-8.653852E-2,-8.445745E-2,7.240183E-2,-1.1002869E-2,2.2950511E-2,7.6622926E-2,-9.177544E-2,-4.5851395E-2,2.7712703E-2,-5.555121E-2,-2.1493075E-2,-8.369131E-2,2.911785E-2,-4.4898912E-2,-1.3151552E-2,5.9472807E-2,-1.0603439E-1,1.875413E-2,-7.031896E-2,-9.5468365E-2,2.327939E-2,-8.984782E-2,1.916591E-2,-9.211368E-2,-1.1285736E-1,-9.850141E-2,4.007999E-2,-1.0551955E-1,4.1327942E-2,-7.8598864E-2,6.271863E-2,-4.3060366E-2,2.637367E-2,3.7341475E-2,-1.3893977E-3,-1.0211622E-1,6.966097E-2,4.477837E-2,5.591594E-2,-1.2176712E-1,6.78194E-2],"split_indices":[2,3,1,2,3,3,2,1,1,1,1,1,2,3,3,2,1,0,2,3,3,0,2,2,3,1,1,3,3,0,2,3,3,2,1,0,1,2,2,2,3,0,1,2,3,1,2,1,3,3,0,1,0,3,1,1,3,0,0,0,0,0,0,0,0,0,0,0,0,0,0,0,0,0,0,0,0,0,0,0,0,0,0,0,0,0,0,0,0,0,0,0,0,0,0,0,0,0,0,0,0],"split_type":[0,0,0,0,0,0,0,0,0,0,0,0,0,0,0,0,0,0,0,0,0,0,0,0,0,0,0,0,0,0,0,0,0,0,0,0,0,0,0,0,0,0,0,0,0,0,0,0,0,0,0,0,0,0,0,0,0,0,0,0,0,0,0,0,0,0,0,0,0,0,0,0,0,0,0,0,0,0,0,0,0,0,0,0,0,0,0,0,0,0,0,0,0,0,0,0,0,0,0,0,0],"sum_hessian":[8.1741266E4,4.9246125E4,3.249514E4,1.3171755E4,3.607437E4,7.6000527E3,2.4895088E4,1.262873E4,5.430248E2,3.4890266E4,1.1841029E3,4.591997E3,3.0080557E3,1.4990963E4,9.904126E3,4.4615264E3,8.167204E3,3.2849344E2,2.1453131E2,2.2987266E4,1.1903E4,7.8241165E1,1.1058617E3,3.0303945E3,1.5616023E3,2.1489648E3,8.5909094E2,1.4270607E3,1.3563902E4,3.318135E1,9.870944E3,3.8277168E3,6.338099E2,1.7096967E3,6.4575073E3,4.2320866E1,1.7221043E2,2.0375304E3,2.0949736E4,1.3985087E3,1.0504492E4,3.5547863E1,1.0703138E3,8.2555774E2,2.204837E3,9.0246893E2,6.5913336E2,1.5915784E3,5.5738635E2,8.550263E2,4.064633E0,1.3461842E3,8.087648E1,1.2719758E4,8.44144E2,7.159295E3,2.7116494E3,3.4107424E3,4.169742E2,2.3784561E2,3.9596426E2,5.2975826E1,1.6567208E3,1.2560786E3,5.2014287E3,1.4339073E2,2.8819714E1,1.1843259E3,8.5320447E2,1.919052E4,1.759217E3,6.744379E1,1.3310648E3,5.78246E3,4.7220317E3,1.050302E3,2.0011822E1,2.3265727E2,5.9290045E2,1.2440571E2,2.0804312E3,1.3398528E2,7.6848364E2,6.1799884E2,4.1134468E1,3.0069284E1,1.5615092E3,1.5576494E2,4.0162143E2,1.9427892E0,8.5308356E2,2.0106218E2,1.1451221E3,1.227525E4,4.44508E2,7.3061347E0,8.368378E2,1.3104949E3,5.8488003E3,1.1479853E1,2.7001694E3],"tree_param":{"num_deleted":"0","num_feature":"4","num_nodes":"101","size_leaf_vector":"1"}},{"base_weights":[3.9705664E-2,-3.8637918E-1,7.7153003E-1,4.0444064E-1,-6.8388295E-1,4.9066067E-1,1.0462787E0,5.5200255E-1,3.2058954E-2,-7.709492E-1,6.5619904E-1,1.2304657E-1,8.555626E-1,9.22241E-1,1.2413836E0,3.4590554E-1,9.316629E-1,1.1738611E0,-1.3877934E-1,-8.3960795E-1,8.361225E-1,-2.989889E-1,1.0733242E0,-6.171591E-2,6.76673E-1,7.1500504E-1,1.2088052E0,7.555137E-1,1.2166812E0,-1.0428428E-1,1.2473067E0,1.9661653E-1,8.930021E-1,-9.365707E-2,9.9184847E-1,-1.0343827E-1,1.2922231E0,-1.5601945E0,1.760879E-1,-8.924744E-1,-1.02055095E-1,-7.660442E-2,9.54272E-1,1.2489445E0,-7.317572E-1,5.3322196E-1,1.382569E0,-1.147502E0,1.1028797E-2,7.832779E-1,-1.0079693E-1,-9.3265764E-2,7.2896165E-1,-9.981533E-2,1.2323267E0,6.08532E-1,1.1439621E0,1.2258878E0,-1.2463601E-1,1.1437496E0,1.2838291E0,-9.172454E-2,1.4274451E-2,6.2230486E-2,-4.5832228E-2,5.2910056E-2,-2.3234759E-2,-8.947334E-2,6.7836925E-2,-1.282804E-2,-9.5392324E-2,-2.4801076E-3,4.5751877E-2,-3.0437723E-2,-5.1301945E-2,-2.902331E-2,4.736715E-2,2.8356899E-2,6.344445E-2,-8.9551754E-2,7.2926305E-2,-8.1674345E-2,8.238319E-3,-8.421761E-2,4.8056643E-2,7.023327E-2,-9.1990985E-2,3.5806026E-2,-9.1892354E-2,5.5902865E-2,-2.9781812E-3,4.144433E-2,-9.9439286E-2,4.7681924E-2,3.10275E-2,4.6582017E-2,6.638601E-2,3.206707E-2,-1.20260656E-1,-1.071197E-1,5.8061372E-2,-8.7879024E-2,6.153829E-2,6.2508136E-2,-1.2220361E-2,-1.12086676E-1,6.465941E-2],"categories":[],"categories_nodes":[],"categories_segments":[],"categories_sizes":[],"default_left":[0,0,0,0,0,0,0,0,0,0,0,0,0,0,0,0,0,0,0,0,0,0,0,0,0,0,0,0,0,0,0,0,0,0,0,0,0,0,0,0,0,0,0,0,0,0,0,0,0,0,0,0,0,0,0,0,0,0,0,0,0,0,0,0,0,0,0,0,0,0,0,0,0,0,0,0,0,0,0,0,0,0,0,0,0,0,0,0,0,0,0,0,0,0,0,0,0,0,0,0,0,0,0,0,0,0,0],"id":9,"left_children":[1,3,5,7,9,11,13,15,17,19,21,23,25,27,29,31,33,35,37,39,41,43,45,47,49,51,53,55,57,-1,59,61,63,-1,65,-1,67,69,71,73,75,-1,77,79,81,83,85,87,89,91,-1,-1,93,-1,95,97,99,101,-1,103,105,-1,-1,-1,-1,-1,-1,-1,-1,-1,-1,-1,-1,-1,-1,-1,-1,-1,-1,-1,-1,-1,-1,-1,-1,-1,-1,-1,-1,-1,-1,-1,-1,-1,-1,-1,-1,-1,-1,-1,-1,-1,-1,-1,-1,-1,-1],"loss_changes":[2.5909514E4,1.2355744E4,2.3589746E3,7.8885205E2,4.4529062E3,2.0283218E3,3.728828E2,8.0420166E2,7.9513135E2,3.9544785E3,9.281108E2,7.7067554E2,3.759121E2,4.6311084E2,1.209209E2,5.4425824E2,6.1244775E2,2.0628796E2,1.5872743E3,1.3398672E3,4.1239685E2,4.7558746E2,2.700121E2,4.4624924E2,5.427273E2,1.969414E2,1.6519312E2,3.440249E2,1.1970508E2,0E0,2.1202148E1,9.46051E2,9.102113E2,0E0,3.4278345E2,0E0,1.0431134E2,2.9098755E2,4.8431885E2,1.2145352E3,1.1550548E3,0E0,1.6973633E2,1.01486404E2,4.4844955E2,5.63227E2,7.5936646E1,4.5771985E2,4.1392743E2,2.310127E2,0E0,0E0,1.3099878E2,0E0,6.0245605E1,4.3487305E2,9.6464355E1,5.1759766E1,0E0,2.3251074E2,1.4883838E2,0E0,0E0,0E0,0E0,0E0,0E0,0E0,0E0,0E0,0E0,0E0,0E0,0E0,0E0,0E0,0E0,0E0,0E0,0E0,0E0,0E0,0E0,0E0,0E0,0E0,0E0,0E0,0E0,0E0,0E0,0E0,0E0,0E0,0E0,0E0,0E0,0E0,0E0,0E0,0E0,0E0,0E0,0E0,0E0,0E0,0E0],"parents":[2147483647,0,0,1,1,2,2,3,3,4,4,5,5,6,6,7,7,8,8,9,9,10,10,11,11,12,12,13,13,14,14,15,15,16,16,17,17,18,18,19,19,20,20,21,21,22,22,23,23,24,24,25,25,26,26,27,27,28,28,30,30,31,31,32,32,34,34,36,36,37,37,38,38,39,39,40,40,42,42,43,43,44,44,45,45,46,46,47,47,48,48,49,49,52,52,54,54,55,55,56,56,57,57,59,59,60,60],"right_children":[2,4,6,8,10,12,14,16,18,20,22,24,26,28,30,32,34,36,38,40,42,44,46,48,50,52,54,56,58,-1,60,62,64,-1,66,-1,68,70,72,74,76,-1,78,80,82,84,86,88,90,92,-1,-1,94,-1,96,98,100,102,-1,104,106,-1,-1,-1,-1,-1,-1,-1,-1,-1,-1,-1,-1,-1,-1,-1,-1,-1,-1,-1,-1,-1,-1,-1,-1,-1,-1,-1,-1,-1,-1,-1,-1,-1,-1,-1,-1,-1,-1,-1,-1,-1,-1,-1,-1,-1,-1],"split_conditions":[1.6499712E1,1.520049E-1,3.6851845E1,3.8594005E-3,7.4367576E0,3.4862952E0,4.7469325E0,2.573145E-3,7.28572E-3,7.349153E1,9.690393E0,7.110163E1,6.519805E0,1.321062E2,4.201945E1,2.4234515E-2,2.0351956E0,3.8888473E-3,7.238984E-3,1.4070531E1,1.9524999E0,3.0399024E-1,8.911599E0,2.1809065E1,3.407459E1,1.7898708E1,1.719389E1,6.8885574E1,4.562466E0,-1.0428428E-1,5.6878357E0,2.1826336E0,1.7106533E-3,-9.365707E-2,6.0596455E-2,-1.0343827E-1,2.1083746E0,3.8888473E-3,5.572909E0,2.9409373E0,4.8224373E0,-7.660442E-2,1.02133415E2,1.8913746E-1,2.095172E0,8.161382E0,1.5246788E1,1.683054E1,2.2734327E1,3.2366712E0,-1.0079693E-1,-9.3265764E-2,1.9972551E1,-9.981533E-2,2.2485947E1,1.2180902E2,7.609399E1,3.85414E1,-1.2463601E-1,5.359213E0,3.85414E1,-9.172454E-2,1.4274451E-2,6.2230486E-2,-4.5832228E-2,5.2910056E-2,-2.3234759E-2,-8.947334E-2,6.7836925E-2,-1.282804E-2,-9.5392324E-2,-2.4801076E-3,4.5751877E-2,-3.0437723E-2,-5.1301945E-2,-2.902331E-2,4.736715E-2,2.8356899E-2,6.344445E-2,-8.9551754E-2,7.2926305E-2,-8.1674345E-2,8.238319E-3,-8.421761E-2,4.8056643E-2,7.023327E-2,-9.1990985E-2,3.5806026E-2,-9.1892354E-2,5.5902865E-2,-2.9781812E-3,4.144433E-2,-9.9439286E-2,4.7681924E-2,3.10275E-2,4.6582017E-2,6.638601E-2,3.206707E-2,-1.20260656E-1,-1.071197E-1,5.8061372E-2,-8.7879024E-2,6.153829E-2,6.2508136E-2,-1.2220361E-2,-1.12086676E-1,6.465941E-2],"split_indices":[2,3,2,2,0,0,0,2,3,3,3,3,0,3,3,3,0,2,2,2,2,3,0,3,2,3,2,2,0,0,0,0,2,0,3,0,0,2,0,3,0,0,3,3,2,2,2,2,3,0,0,0,2,0,2,3,3,2,0,0,2,0,0,0,0,0,0,0,0,0,0,0,0,0,0,0,0,0,0,0,0,0,0,0,0,0,0,0,0,0,0,0,0,0,0,0,0,0,0,0,0,0,0,0,0,0,0],"split_type":[0,0,0,0,0,0,0,0,0,0,0,0,0,0,0,0,0,0,0,0,0,0,0,0,0,0,0,0,0,0,0,0,0,0,0,0,0,0,0,0,0,0,0,0,0,0,0,0,0,0,0,0,0,0,0,0,0,0,0,0,0,0,0,0,0,0,0,0,0,0,0,0,0,0,0,0,0,0,0,0,0,0,0,0,0,0,0,0,0,0,0,0,0,0,0,0,0,0,0,0,0,0,0,0,0,0,0],"sum_hessian":[8.308949E4,5.2514703E4,3.0574787E4,1.4355303E4,3.8159402E4,1.5120367E4,1.545442E4,1.0280869E4,4.0744333E3,3.5831805E4,2.327598E3,7.5328584E3,7.587509E3,9.451413E3,6.0030063E3,6.6648145E3,3.6160547E3,5.2951764E2,3.5449158E3,3.4364145E4,1.4676588E3,7.0757745E2,1.6200206E3,5.648624E3,1.8842343E3,5.429928E3,2.1575808E3,6.036693E3,3.4147202E3,1.0044105E1,5.9929624E3,5.2370996E3,1.4277146E3,7.533052E1,3.540724E3,1.8067415E1,5.114502E2,6.421378E2,2.902778E3,3.2065535E4,2.2986104E3,6.917307E1,1.3984857E3,1.5418823E2,5.533892E2,5.9083673E2,1.0291838E3,3.5375217E2,5.294872E3,1.8131575E3,7.107678E1,2.8498154E1,5.40143E3,1.5107566E1,2.1424734E3,4.381414E3,1.6552792E3,3.4069338E3,7.7863092E0,1.5709503E3,4.422012E3,2.187231E2,5.0183765E3,1.1957057E3,2.3200891E2,3.3867163E3,1.5400793E2,9.939417E0,5.015108E2,1.3555782E2,5.0658E2,2.2243499E3,6.784282E2,1.0265321E4,2.1800213E4,1.5791411E3,7.1946924E2,6.282414E2,7.7024426E2,9.457758E0,1.4473047E2,2.7548373E2,2.779055E2,9.509372E1,4.95743E2,1.02273486E3,6.4489627E0,9.561017E1,2.58142E2,3.1651135E2,4.978361E3,1.7844982E3,2.8659317E1,1.7554879E3,3.6459421E3,5.185951E2,1.6238782E3,4.3350073E3,4.6406326E1,8.007481E0,1.6472717E3,4.9747124E0,3.4019592E3,1.4591914E3,1.1175899E2,1.1076014E1,4.410936E3],"tree_param":{"num_deleted":"0","num_feature":"4","num_nodes":"107","size_leaf_vector":"1"}},{"base_weights":[-1.564234E-2,-4.4870913E-1,6.4319247E-1,2.5367433E-1,-7.7110195E-1,2.9618067E-1,9.141486E-1,-2.2930086E-1,4.4248202E-1,-8.4312373E-1,9.214552E-1,4.3232854E-2,7.342068E-1,7.521529E-1,1.0904527E0,7.657498E-2,-1.0859584E0,8.114955E-1,-3.4467533E-2,-9.4669634E-1,-3.1266826E-1,-8.506716E-2,1.0836979E0,-2.5192124E-1,3.799999E-1,-9.563552E-2,7.508259E-1,-9.1840856E-2,7.663328E-1,1.0171622E0,1.2676558E0,-6.7730755E-2,1.503602E0,-3.4439686E-1,-8.346758E-2,1.2451501E0,6.3201463E-1,-1.2276249E-1,1.9702364E0,-6.7070967E-1,-1.0564325E0,-6.89516E-1,4.5234866E-2,-7.3371686E-2,1.1544778E0,-8.688983E-2,-1.3854289E-1,6.577197E-2,5.1213604E-1,1.1813872E0,6.7303765E-1,7.263239E-1,1.3153847E0,8.111234E-1,1.0762216E0,-1.172209E-1,1.285586E0,4.7342046E-3,-5.9701223E-2,-8.781729E-2,8.4997684E-2,-9.091508E-2,1.1414479E-2,-8.103815E-2,6.7144185E-2,1.1196072E-3,5.2118957E-2,-6.895885E-4,-8.53669E-2,-5.6369346E-2,1.0013665E-1,-4.1657463E-2,2.5992615E-2,-6.268119E-2,-4.3282997E-2,-5.398208E-2,-1.1784423E-2,8.749824E-2,-2.8223207E-3,6.0118224E-2,-1.02137126E-1,2.0360343E-2,-1.8900605E-2,8.750332E-3,-1.0741832E-1,-9.647904E-2,2.7861705E-2,-9.596035E-2,6.0489535E-2,-1.0508778E-1,3.4947228E-2,3.6710583E-2,-1.0889126E-1,6.783996E-2,-1.09328344E-1,4.4043127E-2,-1.359377E-1,5.67366E-2,4.3990355E-2,-1.2525146E-1,6.477617E-2],"categories":[],"categories_nodes":[],"categories_segments":[],"categories_sizes":[],"default_left":[0,0,0,0,0,0,0,0,0,0,0,0,0,0,0,0,0,0,0,0,0,0,0,0,0,0,0,0,0,0,0,0,0,0,0,0,0,0,0,0,0,0,0,0,0,0,0,0,0,0,0,0,0,0,0,0,0,0,0,0,0,0,0,0,0,0,0,0,0,0,0,0,0,0,0,0,0,0,0,0,0,0,0,0,0,0,0,0,0,0,0,0,0,0,0,0,0,0,0,0,0],"id":10,"left_children":[1,3,5,7,9,11,13,15,17,19,21,23,25,27,29,31,33,35,37,39,41,-1,43,45,47,-1,49,-1,51,53,55,57,59,61,-1,63,65,67,69,71,73,75,77,-1,79,-1,81,83,85,87,89,91,93,95,97,-1,99,-1,-1,-1,-1,-1,-1,-1,-1,-1,-1,-1,-1,-1,-1,-1,-1,-1,-1,-1,-1,-1,-1,-1,-1,-1,-1,-1,-1,-1,-1,-1,-1,-1,-1,-1,-1,-1,-1,-1,-1,-1,-1,-1,-1],"loss_changes":[2.2786879E4,1.0912231E4,2.9780283E3,1.3826125E3,4.027041E3,1.5389565E3,5.0717285E2,1.1167777E3,1.9184683E3,1.7403008E3,5.756979E2,8.754292E2,2.2510986E2,3.4181836E2,1.092959E2,6.469894E2,4.845525E2,4.7753394E2,8.420211E2,8.020293E2,6.982593E2,0E0,2.3112744E2,7.9049243E2,1.7076697E2,0E0,1.6846704E2,0E0,2.0164209E2,7.248682E1,1.6410156E2,5.2214856E2,1.8767365E2,4.1824612E2,0E0,5.0576636E2,1.0878513E3,7.8667035E2,2.245874E1,1.4592893E3,7.1228125E2,4.4622058E2,4.605055E2,0E0,1.9182654E2,0E0,5.702313E2,2.951775E2,3.1994244E2,7.0310425E1,3.0933765E2,1.9856934E2,9.363733E1,3.3402106E2,5.2814453E1,0E0,9.6498535E1,0E0,0E0,0E0,0E0,0E0,0E0,0E0,0E0,0E0,0E0,0E0,0E0,0E0,0E0,0E0,0E0,0E0,0E0,0E0,0E0,0E0,0E0,0E0,0E0,0E0,0E0,0E0,0E0,0E0,0E0,0E0,0E0,0E0,0E0,0E0,0E0,0E0,0E0,0E0,0E0,0E0,0E0,0E0,0E0],"parents":[2147483647,0,0,1,1,2,2,3,3,4,4,5,5,6,6,7,7,8,8,9,9,10,10,11,11,12,12,13,13,14,14,15,15,16,16,17,17,18,18,19,19,20,20,22,22,23,23,24,24,26,26,28,28,29,29,30,30,31,31,32,32,33,33,35,35,36,36,37,37,38,38,39,39,40,40,41,41,42,42,44,44,46,46,47,47,48,48,49,49,50,50,51,51,52,52,53,53,54,54,56,56],"right_children":[2,4,6,8,10,12,14,16,18,20,22,24,26,28,30,32,34,36,38,40,42,-1,44,46,48,-1,50,-1,52,54,56,58,60,62,-1,64,66,68,70,72,74,76,78,-1,80,-1,82,84,86,88,90,92,94,96,98,-1,100,-1,-1,-1,-1,-1,-1,-1,-1,-1,-1,-1,-1,-1,-1,-1,-1,-1,-1,-1,-1,-1,-1,-1,-1,-1,-1,-1,-1,-1,-1,-1,-1,-1,-1,-1,-1,-1,-1,-1,-1,-1,-1,-1,-1],"split_conditions":[1.4070531E1,2.7807966E-1,1.09933195E1,4.351138E-4,7.349153E1,6.662295E1,4.707436E1,1.2934208E-3,8.6749723E-4,3.5423784E0,4.7517726E-3,5.425668E0,8.404253E-4,1.64016E1,9.4119316E1,1.2874601E-3,8.146414E-3,4.3809428E-4,2.467513E-1,2.2781987E0,1.8133957E1,-8.506716E-2,1.9524999E0,2.0032307E1,1.8731133E1,-9.563552E-2,1.7564302E1,-9.1840856E-2,1.321062E2,1.883638E1,1.1397339E2,3.427267E-3,7.28572E-3,5.1410217E-3,-8.346758E-2,1.7166138E-3,8.583069E-4,2.0983826E-1,2.5654435E-1,8.885056E-1,2.6220858E0,6.3095717E0,4.239005E0,-7.3371686E-2,7.645572E0,-8.688983E-2,1.8537343E-1,4.7573383E1,2.1809065E1,1.436044E1,1.9109959E1,1.2180902E2,2.583754E1,7.827282E1,1.1397339E2,-1.172209E-1,1.452285E1,4.7342046E-3,-5.9701223E-2,-8.781729E-2,8.4997684E-2,-9.091508E-2,1.1414479E-2,-8.103815E-2,6.7144185E-2,1.1196072E-3,5.2118957E-2,-6.895885E-4,-8.53669E-2,-5.6369346E-2,1.0013665E-1,-4.1657463E-2,2.5992615E-2,-6.268119E-2,-4.3282997E-2,-5.398208E-2,-1.1784423E-2,8.749824E-2,-2.8223207E-3,6.0118224E-2,-1.02137126E-1,2.0360343E-2,-1.8900605E-2,8.750332E-3,-1.0741832E-1,-9.647904E-2,2.7861705E-2,-9.596035E-2,6.0489535E-2,-1.0508778E-1,3.4947228E-2,3.6710583E-2,-1.0889126E-1,6.783996E-2,-1.09328344E-1,4.4043127E-2,-1.359377E-1,5.67366E-2,4.3990355E-2,-1.2525146E-1,6.477617E-2],"split_indices":[2,3,1,1,3,3,2,2,1,1,1,1,1,3,2,2,3,1,1,3,3,0,2,3,2,0,2,0,3,1,3,3,3,3,0,2,1,3,2,1,2,1,2,0,1,0,1,3,3,2,2,3,1,2,3,0,1,0,0,0,0,0,0,0,0,0,0,0,0,0,0,0,0,0,0,0,0,0,0,0,0,0,0,0,0,0,0,0,0,0,0,0,0,0,0,0,0,0,0,0,0],"split_type":[0,0,0,0,0,0,0,0,0,0,0,0,0,0,0,0,0,0,0,0,0,0,0,0,0,0,0,0,0,0,0,0,0,0,0,0,0,0,0,0,0,0,0,0,0,0,0,0,0,0,0,0,0,0,0,0,0,0,0,0,0,0,0,0,0,0,0,0,0,0,0,0,0,0,0,0,0,0,0,0,0,0,0,0,0,0,0,0,0,0,0,0,0,0,0,0,0,0,0,0,0],"sum_hessian":[7.986243E4,4.8187816E4,3.1674607E4,1.515987E4,3.302795E4,1.3889066E4,1.7785541E4,4.2606914E3,1.0899179E4,3.1680385E4,1.3475637E3,8.805333E3,5.083734E3,9.271634E3,8.513907E3,3.1403257E3,1.1203657E3,6.1445054E3,4.754674E3,2.6504531E4,5.175853E3,7.794975E1,1.2696139E3,4.6927227E3,4.11261E3,3.1007946E1,5.052726E3,4.98043E1,9.221829E3,6.027641E3,2.4862664E3,2.8527942E3,2.8753152E2,4.9401047E2,6.263552E2,1.7969197E3,4.3475854E3,4.5549927E3,1.9968082E2,7.5424263E3,1.8962105E4,2.5207485E3,2.6551042E3,3.374121E1,1.2358727E3,3.3167267E2,4.3610503E3,1.2178898E3,2.89472E3,7.7100305E2,4.281723E3,8.597649E3,6.2417975E2,1.3461381E3,4.6815034E3,1.163984E1,2.4746267E3,2.4940596E3,3.587347E2,1.5883263E1,2.7164825E2,1.3762762E2,3.5638284E2,5.8743946E1,1.7381757E3,1.7495591E3,2.5980264E3,4.262847E3,2.921458E2,1.7232662E0,1.9795755E2,6.6371567E3,9.052696E2,9.321452E3,9.640653E3,1.3547664E3,1.1659822E3,1.48541E2,2.5065632E3,1.2182502E3,1.762251E1,1.3297812E3,3.031269E3,1.1615077E3,5.6382095E1,5.1737583E1,2.8429824E3,6.3944955E0,7.646085E2,3.8865368E1,4.242858E3,8.575106E3,2.2542982E1,6.174898E2,6.6899247E0,1.3207938E3,2.5344252E1,3.603324E3,1.0781792E3,5.813915E0,2.4688127E3],"tree_param":{"num_deleted":"0","num_feature":"4","num_nodes":"101","size_leaf_vector":"1"}},{"base_weights":[2.390192E-2,-4.0668932E-1,6.5725005E-1,2.1664625E-1,-6.833631E-1,3.7309322E-1,8.981626E-1,4.002485E-1,-1.489022E-1,-7.353062E-1,7.602217E-1,6.1339564E-3,6.0590196E-1,7.180621E-1,1.0437506E0,2.5242422E-2,6.726377E-1,-1.4311248E0,7.751057E-2,-8.495691E-1,-2.3519333E-1,-8.214345E-2,9.328931E-1,-1.7164193E-1,6.3343674E-1,5.092393E-1,1.0836271E0,-1.0353189E-1,7.3049396E-1,8.849582E-1,1.1234093E0,1.7301552E-1,-1.1674064E0,7.709382E-1,-1.0672294E0,7.109716E-2,-1.7015545E0,1.1566687E0,-1.340629E-1,-5.284354E-1,-1.0222728E0,-1.9110535E-1,-8.674861E-2,-7.1714245E-2,1.0111387E0,-3.444088E-2,-1.3756036E0,7.8903884E-1,-1.00569904E-1,-9.054531E-2,5.1761883E-1,1.1452883E0,-1.1240075E-1,6.6711235E-1,1.1881455E0,-1.11881934E-1,9.098956E-1,1.0678005E0,1.2361002E0,9.738228E-3,-8.515113E-2,-8.330103E-2,-2.2924637E-2,6.2669E-2,2.934202E-2,-8.992965E-2,2.82971E-2,3.891263E-2,-9.175409E-2,-7.884698E-2,-9.2961974E-2,-1.0080768E-1,6.5510385E-2,-1.8697418E-2,4.4791523E-2,-3.5843298E-2,2.7259512E-2,-5.92889E-2,-3.7520003E-2,-2.1501835E-2,3.5871298E-3,5.327313E-2,-9.684737E-2,-8.367978E-2,2.277184E-3,-2.9101891E-2,-9.420534E-2,3.4932822E-3,5.182714E-2,2.3908619E-2,4.5240518E-2,6.663483E-2,4.733266E-2,3.846302E-2,1.6632814E-2,6.1210234E-2,-1.0960318E-1,3.707439E-2,5.922976E-2,5.6609657E-2,4.061484E-2,-1.09514795E-1,6.273551E-2],"categories":[],"categories_nodes":[],"categories_segments":[],"categories_sizes":[],"default_left":[0,0,0,0,0,0,0,0,0,0,0,0,0,0,0,0,0,0,0,0,0,0,0,0,0,0,0,0,0,0,0,0,0,0,0,0,0,0,0,0,0,0,0,0,0,0,0,0,0,0,0,0,0,0,0,0,0,0,0,0,0,0,0,0,0,0,0,0,0,0,0,0,0,0,0,0,0,0,0,0,0,0,0,0,0,0,0,0,0,0,0,0,0,0,0,0,0,0,0,0,0,0,0],"id":11,"left_children":[1,3,5,7,9,11,13,15,17,19,21,23,25,27,29,31,33,35,37,39,41,-1,43,45,47,49,51,-1,53,55,57,59,61,63,65,67,69,71,73,75,77,79,-1,-1,81,83,85,87,-1,-1,89,91,-1,93,95,-1,97,99,101,-1,-1,-1,-1,-1,-1,-1,-1,-1,-1,-1,-1,-1,-1,-1,-1,-1,-1,-1,-1,-1,-1,-1,-1,-1,-1,-1,-1,-1,-1,-1,-1,-1,-1,-1,-1,-1,-1,-1,-1,-1,-1,-1,-1],"loss_changes":[2.193541E4,8.257748E3,2.2281191E3,9.8799884E2,2.4871953E3,1.2761287E3,4.6115234E2,1.00090674E3,1.4290787E3,1.8290371E3,4.7966876E2,6.468347E2,4.2148413E2,2.7462915E2,1.22200195E2,7.269947E2,9.715796E2,3.0023987E2,9.555479E2,1.4446074E3,3.9341446E2,0E0,2.0068915E2,7.464958E2,5.286848E2,1.4875562E2,3.183562E2,0E0,2.2672607E2,2.5575513E2,3.9300293E1,1.5007884E2,1.5998114E2,4.764751E2,3.6407434E2,1.5464189E2,9.37085E0,3.3682965E2,8.648893E2,1.8443223E3,7.5228516E2,3.6340015E2,0E0,0E0,1.6891736E2,5.321255E2,1.8546112E2,2.1536603E2,0E0,0E0,1.15286865E2,5.494507E1,0E0,2.3519556E2,1.1882617E2,0E0,1.4869287E2,7.060889E1,1.3891211E2,0E0,0E0,0E0,0E0,0E0,0E0,0E0,0E0,0E0,0E0,0E0,0E0,0E0,0E0,0E0,0E0,0E0,0E0,0E0,0E0,0E0,0E0,0E0,0E0,0E0,0E0,0E0,0E0,0E0,0E0,0E0,0E0,0E0,0E0,0E0,0E0,0E0,0E0,0E0,0E0,0E0,0E0,0E0,0E0],"parents":[2147483647,0,0,1,1,2,2,3,3,4,4,5,5,6,6,7,7,8,8,9,9,10,10,11,11,12,12,13,13,14,14,15,15,16,16,17,17,18,18,19,19,20,20,22,22,23,23,24,24,25,25,26,26,28,28,29,29,30,30,31,31,32,32,33,33,34,34,35,35,36,36,37,37,38,38,39,39,40,40,41,41,44,44,45,45,46,46,47,47,50,50,51,51,53,53,54,54,56,56,57,57,58,58],"right_children":[2,4,6,8,10,12,14,16,18,20,22,24,26,28,30,32,34,36,38,40,42,-1,44,46,48,50,52,-1,54,56,58,60,62,64,66,68,70,72,74,76,78,80,-1,-1,82,84,86,88,-1,-1,90,92,-1,94,96,-1,98,100,102,-1,-1,-1,-1,-1,-1,-1,-1,-1,-1,-1,-1,-1,-1,-1,-1,-1,-1,-1,-1,-1,-1,-1,-1,-1,-1,-1,-1,-1,-1,-1,-1,-1,-1,-1,-1,-1,-1,-1,-1,-1,-1,-1,-1],"split_conditions":[1.4070531E1,2.7807966E-1,3.0707771E1,3.8594005E-3,7.349153E1,5.951956E0,5.0093193E1,4.351138E-4,8.583069E-4,3.1109154E0,4.7517726E-3,6.662295E1,7.349153E1,3.3046513E1,1.883638E1,1.7106533E-3,1.7106533E-3,3.8888473E-3,8.597489E-4,2.9409373E0,1.3548798E1,-8.214345E-2,1.9524999E0,4.8609795E1,2.7098635E1,1.4799079E1,1.883638E1,-1.0353189E-1,1.321062E2,6.102229E1,9.4119316E1,7.5374373E-6,2.573145E-3,4.3809428E-4,2.5821393E-3,4.3809428E-4,4.351138E-4,4.4421204E-3,1.593142E-1,8.885056E-1,1.663802E1,1.8133957E1,-8.674861E-2,-7.1714245E-2,7.645572E0,1.7898708E1,1.8324978E1,1.0558367E0,-1.00569904E-1,-9.054531E-2,2.0048067E1,2.040847E1,-1.1240075E-1,7.609399E1,2.583754E1,-1.11881934E-1,1.466067E2,1.1397339E2,1.1397339E2,9.738228E-3,-8.515113E-2,-8.330103E-2,-2.2924637E-2,6.2669E-2,2.934202E-2,-8.992965E-2,2.82971E-2,3.891263E-2,-9.175409E-2,-7.884698E-2,-9.2961974E-2,-1.0080768E-1,6.5510385E-2,-1.8697418E-2,4.4791523E-2,-3.5843298E-2,2.7259512E-2,-5.92889E-2,-3.7520003E-2,-2.1501835E-2,3.5871298E-3,5.327313E-2,-9.684737E-2,-8.367978E-2,2.277184E-3,-2.9101891E-2,-9.420534E-2,3.4932822E-3,5.182714E-2,2.3908619E-2,4.5240518E-2,6.663483E-2,4.733266E-2,3.846302E-2,1.6632814E-2,6.1210234E-2,-1.0960318E-1,3.707439E-2,5.922976E-2,5.6609657E-2,4.061484E-2,-1.09514795E-1,6.273551E-2],"split_indices":[2,3,2,2,3,1,2,1,1,1,1,3,3,3,1,2,1,2,1,3,2,0,2,3,2,3,1,0,3,3,2,1,2,1,1,1,1,2,2,1,3,3,0,0,1,3,2,1,0,0,1,2,0,3,1,0,3,3,3,0,0,0,0,0,0,0,0,0,0,0,0,0,0,0,0,0,0,0,0,0,0,0,0,0,0,0,0,0,0,0,0,0,0,0,0,0,0,0,0,0,0,0,0],"split_type":[0,0,0,0,0,0,0,0,0,0,0,0,0,0,0,0,0,0,0,0,0,0,0,0,0,0,0,0,0,0,0,0,0,0,0,0,0,0,0,0,0,0,0,0,0,0,0,0,0,0,0,0,0,0,0,0,0,0,0,0,0,0,0,0,0,0,0,0,0,0,0,0,0,0,0,0,0,0,0,0,0,0,0,0,0,0,0,0,0,0,0,0,0,0,0,0,0,0,0,0,0,0,0],"sum_hessian":[8.043173E4,4.7880086E4,3.2551639E4,1.4718984E4,3.31611E4,1.4936525E4,1.7615113E4,9.797798E3,4.921187E3,3.2009814E4,1.1512881E3,5.7982295E3,9.138296E3,7.8768896E3,9.738224E3,4.122847E3,5.67495E3,7.3776263E2,4.1834243E3,2.6055992E4,5.9538223E3,7.660811E1,1.0746799E3,4.518442E3,1.2797877E3,7.6021475E3,1.5361483E3,3.422409E1,7.8426655E3,3.2572668E3,6.4809565E3,3.6690898E3,4.537573E2,5.3719956E3,3.0295483E2,1.12662994E2,6.250997E2,6.850042E2,3.4984202E3,9.113663E3,1.694233E4,5.784895E3,1.6892719E2,3.383175E1,1.0408481E3,4.0571282E3,4.613136E2,1.2093408E3,7.0446815E1,2.6583286E1,7.575564E3,1.5088785E3,2.726977E1,6.890796E3,9.518699E2,2.5103775E1,3.232163E3,4.3465645E3,2.1343918E3,3.6279272E3,4.1162643E1,2.655986E2,1.8815869E2,1.4821377E3,3.889858E3,2.0917929E2,9.3775536E1,8.260854E1,3.0054451E1,3.5530832E2,2.6979135E2,3.1058613E1,6.539456E2,2.8380183E3,6.604018E2,7.7532354E3,1.3604274E3,1.0577579E4,6.364751E3,3.0299788E3,2.7549163E3,1.0226427E3,1.8205496E1,1.878347E2,3.8692935E3,1.8099655E2,2.8031705E2,3.0996286E2,8.9937805E2,6.877164E3,6.984001E2,7.7344257E2,7.35436E2,5.277628E3,1.6131678E3,9.424539E2,9.415982E0,2.0060376E3,1.2261255E3,3.4688953E3,8.776692E2,1.0899665E1,2.1234922E3],"tree_param":{"num_deleted":"0","num_feature":"4","num_nodes":"103","size_leaf_vector":"1"}},{"base_weights":[2.3456505E-2,-3.7432808E-1,6.828937E-1,2.591348E-1,-5.9957355E-1,4.8779014E-1,1.0160924E0,4.018116E-1,-9.727896E-2,-7.8421116E-1,2.7605419E-3,1.427579E-1,6.415535E-1,9.5413375E-1,1.2019016E0,2.0795923E-1,8.0251426E-1,-8.689207E-1,1.5371418E-1,-8.4297705E-1,4.4009095E-1,-4.6013683E-1,2.2054796E-1,-1.4779069E-1,6.818004E-1,-9.732516E-2,6.596759E-1,-1.07540786E-1,9.5764595E-1,-1.075891E-1,1.2201645E0,2.7628812E-1,-1.8460908E0,9.4514287E-1,-8.783276E-1,5.69428E-1,-1.4850699E0,-7.625582E-2,2.693788E-1,-5.473719E-1,-1.0006644E0,6.942319E-1,-2.002999E0,-7.601338E-2,-2.7243406E-1,4.536258E-2,5.8485186E-1,-3.4249257E-2,-9.38361E-2,-9.013728E-2,7.1058786E-1,6.359781E-1,1.1327946E0,8.584352E-1,1.0276996E0,1.1119928E0,1.2702239E0,1.7771982E-3,3.381913E-2,-1.16781615E-1,-8.410998E-2,-8.493376E-2,5.1415276E-2,-8.997186E-2,3.1691063E-2,-9.996902E-2,6.618128E-2,-1.7580345E-2,-9.2706405E-2,2.3914048E-2,-1.7301416E-2,-3.473985E-2,2.7951906E-2,-4.7719818E-2,-7.35602E-2,-7.762524E-2,4.776263E-2,-8.7691896E-2,-1.1005368E-1,9.197309E-2,-2.4502208E-2,3.0784538E-2,-6.119183E-3,5.230062E-2,2.2160836E-2,8.222031E-3,-1.856822E-2,7.513996E-2,2.9697334E-2,5.9058614E-2,3.0991662E-2,5.9862938E-2,-1.117957E-1,4.44065E-2,-1.3373537E-1,5.9858453E-2,4.9043942E-2,5.899892E-2,4.2373903E-2,6.717988E-2,6.0625043E-2],"categories":[],"categories_nodes":[],"categories_segments":[],"categories_sizes":[],"default_left":[0,0,0,0,0,0,0,0,0,0,0,0,0,0,0,0,0,0,0,0,0,0,0,0,0,0,0,0,0,0,0,0,0,0,0,0,0,0,0,0,0,0,0,0,0,0,0,0,0,0,0,0,0,0,0,0,0,0,0,0,0,0,0,0,0,0,0,0,0,0,0,0,0,0,0,0,0,0,0,0,0,0,0,0,0,0,0,0,0,0,0,0,0,0,0,0,0,0,0,0,0],"id":12,"left_children":[1,3,5,7,9,11,13,15,17,19,21,23,25,27,29,31,33,35,37,39,41,43,45,47,49,-1,51,-1,53,-1,55,57,59,61,63,65,67,-1,69,71,73,75,77,-1,79,81,83,85,-1,-1,87,89,91,93,95,97,99,-1,-1,-1,-1,-1,-1,-1,-1,-1,-1,-1,-1,-1,-1,-1,-1,-1,-1,-1,-1,-1,-1,-1,-1,-1,-1,-1,-1,-1,-1,-1,-1,-1,-1,-1,-1,-1,-1,-1,-1,-1,-1,-1,-1],"loss_changes":[2.0985396E4,7.120166E3,1.9563018E3,6.6568726E2,4.0939297E3,1.0071997E3,1.2681836E2,7.2596313E2,7.250401E2,2.0274707E3,8.7088696E2,9.16975E2,6.172539E2,9.301758E1,1.7263403E2,8.849324E2,7.314369E2,8.151125E2,5.4898785E2,1.2526309E3,8.0301666E2,5.4958417E2,3.7489813E2,7.4681915E2,1.4794049E2,0E0,1.4551172E2,0E0,5.702539E1,0E0,1.3540039E1,5.8748254E2,1.2358337E1,6.194973E2,3.338824E2,5.3789E2,2.6854163E2,0E0,3.4005664E2,1.5262441E3,3.8026367E2,6.87732E2,2.156128E0,0E0,1.0806208E3,3.7970456E2,1.2413159E2,2.3926881E2,0E0,0E0,1.8647906E2,1.0861426E2,1.3749963E2,3.647964E2,3.7534668E1,1.4854614E1,6.33667E0,0E0,0E0,0E0,0E0,0E0,0E0,0E0,0E0,0E0,0E0,0E0,0E0,0E0,0E0,0E0,0E0,0E0,0E0,0E0,0E0,0E0,0E0,0E0,0E0,0E0,0E0,0E0,0E0,0E0,0E0,0E0,0E0,0E0,0E0,0E0,0E0,0E0,0E0,0E0,0E0,0E0,0E0,0E0,0E0],"parents":[2147483647,0,0,1,1,2,2,3,3,4,4,5,5,6,6,7,7,8,8,9,9,10,10,11,11,12,12,13,13,14,14,15,15,16,16,17,17,18,18,19,19,20,20,21,21,22,22,23,23,24,24,26,26,28,28,30,30,31,31,32,32,33,33,34,34,35,35,36,36,38,38,39,39,40,40,41,41,42,42,44,44,45,45,46,46,47,47,50,50,51,51,52,52,53,53,54,54,55,55,56,56],"right_children":[2,4,6,8,10,12,14,16,18,20,22,24,26,28,30,32,34,36,38,40,42,44,46,48,50,-1,52,-1,54,-1,56,58,60,62,64,66,68,-1,70,72,74,76,78,-1,80,82,84,86,-1,-1,88,90,92,94,96,98,100,-1,-1,-1,-1,-1,-1,-1,-1,-1,-1,-1,-1,-1,-1,-1,-1,-1,-1,-1,-1,-1,-1,-1,-1,-1,-1,-1,-1,-1,-1,-1,-1,-1,-1,-1,-1,-1,-1,-1,-1,-1,-1,-1,-1],"split_conditions":[1.6177727E1,1.520049E-1,4.707436E1,3.8594005E-3,2.9112577E0,5.5972633E0,9.4119316E1,2.5792609E-3,7.238984E-3,5.7839016E1,1.5034107E1,6.662295E1,1.865683E1,4.9768047E1,1.1397339E2,8.597489E-4,1.7106533E-3,7.28572E-3,4.351138E-4,2.4572723E0,1.1180159E1,4.7107043E0,1.4070531E1,5.6347805E1,8.404253E-4,-9.732516E-2,1.321062E2,-1.07540786E-1,1.7729326E1,-1.075891E-1,3.369472E1,6.017857E-3,8.6749723E-4,4.310965E-4,2.5821393E-3,2.503395E-3,4.3809428E-4,-7.625582E-2,5.19124E-2,8.885056E-1,1.0551467E1,3.2782555E-3,7.349153E1,-7.601338E-2,4.830897E0,3.6582177E0,1.436044E1,2.077788E0,-9.38361E-2,-9.013728E-2,1.2755394E-3,5.7687464E0,2.3428574E1,1.6820877E1,6.662295E1,2.3428574E1,4.2569786E1,1.7771982E-3,3.381913E-2,-1.16781615E-1,-8.410998E-2,-8.493376E-2,5.1415276E-2,-8.997186E-2,3.1691063E-2,-9.996902E-2,6.618128E-2,-1.7580345E-2,-9.2706405E-2,2.3914048E-2,-1.7301416E-2,-3.473985E-2,2.7951906E-2,-4.7719818E-2,-7.35602E-2,-7.762524E-2,4.776263E-2,-8.7691896E-2,-1.1005368E-1,9.197309E-2,-2.4502208E-2,3.0784538E-2,-6.119183E-3,5.230062E-2,2.2160836E-2,8.222031E-3,-1.856822E-2,7.513996E-2,2.9697334E-2,5.9058614E-2,3.0991662E-2,5.9862938E-2,-1.117957E-1,4.44065E-2,-1.3373537E-1,5.9858453E-2,4.9043942E-2,5.899892E-2,4.2373903E-2,6.717988E-2,6.0625043E-2],"split_indices":[2,3,2,2,1,1,2,2,2,3,3,3,3,3,3,1,1,3,1,3,2,2,2,3,1,0,3,0,1,0,1,3,1,1,1,1,1,0,2,1,2,1,3,0,2,1,2,1,0,0,1,1,1,1,3,1,1,0,0,0,0,0,0,0,0,0,0,0,0,0,0,0,0,0,0,0,0,0,0,0,0,0,0,0,0,0,0,0,0,0,0,0,0,0,0,0,0,0,0,0,0],"split_type":[0,0,0,0,0,0,0,0,0,0,0,0,0,0,0,0,0,0,0,0,0,0,0,0,0,0,0,0,0,0,0,0,0,0,0,0,0,0,0,0,0,0,0,0,0,0,0,0,0,0,0,0,0,0,0,0,0,0,0,0,0,0,0,0,0,0,0,0,0,0,0,0,0,0,0,0,0,0,0,0,0,0,0,0,0,0,0,0,0,0,0,0,0,0,0,0,0,0,0,0,0],"sum_hessian":[7.999909E4,4.9899332E4,3.009976E4,1.3088919E4,3.6810414E4,1.8985385E4,1.1114374E4,9.347052E3,3.7418674E3,2.8173803E4,8.636611E3,5.8532056E3,1.313218E4,8.339632E3,2.774743E3,6.300505E3,3.0465464E3,9.17791E2,2.8240764E3,2.6883709E4,1.2900934E3,2.762957E3,5.8736543E3,3.803703E3,2.0495027E3,9.057639E1,1.3041604E4,8.732143E0,8.330899E3,1.4395649E1,2.7603472E3,6.098501E3,2.0200389E2,2.8086545E3,2.3789201E2,2.752706E2,6.4252045E2,1.8124107E2,2.6428352E3,9.353619E3,1.753009E4,1.1691854E3,1.20907974E2,4.1454422E2,2.3484128E3,3.9670942E3,1.90656E3,3.5702588E3,2.3344424E2,2.2768934E1,2.0267338E3,1.2421761E4,6.198427E2,3.4534026E3,4.8774966E3,8.8063226E2,1.879715E3,3.808154E3,2.2903472E3,4.73422E1,1.5466168E2,8.506104E1,2.7235935E3,1.4771997E2,9.017204E1,6.2101364E1,2.1316924E2,1.5829938E2,4.8422107E2,1.973236E3,6.695993E2,8.254155E3,1.0994636E3,1.5963439E4,1.566651E3,1.21179985E2,1.0480054E3,5.791287E1,6.2995106E1,2.186801E2,2.129733E3,9.010164E2,3.066078E3,4.464722E2,1.4600878E3,2.24664E3,1.3236189E3,2.5858374E2,1.76815E3,3.55191E2,1.2066569E4,6.0883655E2,1.1006188E1,3.4253625E3,2.8040253E1,1.0505217E3,3.8269749E3,6.978182E2,1.828141E2,8.178463E2,1.0618687E3],"tree_param":{"num_deleted":"0","num_feature":"4","num_nodes":"101","size_leaf_vector":"1"}},{"base_weights":[1.0483176E-2,-3.4684137E-1,6.238438E-1,2.2321023E-1,-5.8868086E-1,3.6707482E-1,8.933799E-1,-1.0243768E-1,3.6460665E-1,-6.576584E-1,8.480737E-1,-8.685809E-2,3.8500077E-1,7.039727E-1,9.838261E-1,2.1741104E-1,-1.1873146E0,6.9056445E-1,-2.9877339E-2,-7.7383125E-1,-4.3110512E-2,-7.946705E-2,9.795246E-1,9.8978154E-2,5.05661E-1,5.1914644E-1,7.9873234E-1,8.97595E-1,1.0898217E0,1.4634404E-1,1.2532986E0,-5.801799E-1,-1.5704731E0,1.115992E0,5.3634936E-1,-2.1143682E-1,9.604679E-1,-4.8219672E-1,-8.7200326E-1,2.0567389E0,-9.8365456E-2,-7.0979714E-2,1.0305296E0,2.8179988E-1,-1.3091227E0,4.6649724E-1,1.0983638E0,5.7180446E-1,-1.2480581E-1,8.762311E-1,5.8825916E-1,1.4093827E0,8.710749E-1,-1.082462E-1,1.0958314E0,1.5523255E-2,-5.8207102E-2,-8.518284E-2,7.478875E-2,-8.606064E-2,1.4708283E-3,-9.1604315E-2,-7.726144E-2,-8.127153E-2,6.1128277E-2,-6.438459E-3,4.758003E-2,-6.927674E-2,-1.1065706E-3,7.7534504E-2,1.6355855E-2,-3.3198096E-2,3.901939E-2,-5.3258777E-2,-2.5030887E-2,-6.296904E-2,1.1009052E-1,-4.8949234E-2,1.8604733E-3,7.639405E-2,4.6432447E-2,-4.449676E-2,1.8949647E-2,-8.977746E-2,-2.020505E-2,2.4449991E-2,-1.1067919E-1,5.8070477E-2,-1.0503822E-1,-1.0289945E-1,3.0053545E-2,2.321021E-2,4.7228985E-2,4.1629206E-2,-1.2402215E-1,-8.2762174E-2,7.273332E-2,-1.2450627E-1,4.471122E-2,5.1408656E-2,5.9618164E-2],"categories":[],"categories_nodes":[],"categories_segments":[],"categories_sizes":[],"default_left":[0,0,0,0,0,0,0,0,0,0,0,0,0,0,0,0,0,0,0,0,0,0,0,0,0,0,0,0,0,0,0,0,0,0,0,0,0,0,0,0,0,0,0,0,0,0,0,0,0,0,0,0,0,0,0,0,0,0,0,0,0,0,0,0,0,0,0,0,0,0,0,0,0,0,0,0,0,0,0,0,0,0,0,0,0,0,0,0,0,0,0,0,0,0,0,0,0,0,0,0,0],"id":13,"left_children":[1,3,5,7,9,11,13,15,17,19,21,-1,23,25,27,29,31,33,35,37,39,-1,41,43,45,47,49,51,53,55,57,59,61,63,65,67,69,71,73,75,77,-1,79,81,83,85,87,89,-1,91,93,95,97,-1,99,-1,-1,-1,-1,-1,-1,-1,-1,-1,-1,-1,-1,-1,-1,-1,-1,-1,-1,-1,-1,-1,-1,-1,-1,-1,-1,-1,-1,-1,-1,-1,-1,-1,-1,-1,-1,-1,-1,-1,-1,-1,-1,-1,-1,-1,-1],"loss_changes":[1.719906E4,6.8361797E3,1.9989346E3,6.801817E2,3.4509902E3,5.58775E2,2.4073145E2,1.5522721E3,1.3243763E3,2.3718086E3,5.127147E2,0E0,5.0629224E2,7.941724E1,8.6177734E1,2.5417514E2,2.3603687E2,3.6940015E2,8.382556E2,7.995176E2,6.131525E2,0E0,1.8677026E2,1.1212865E3,2.3900415E2,2.4717426E2,4.8604736E1,7.0214355E1,8.594971E1,6.960219E2,1.6149774E2,2.7527637E2,1.2894287E0,4.4008533E2,1.143856E3,8.755934E2,2.6949078E2,1.6159059E3,1.4990244E3,6.7954895E1,6.146947E2,0E0,7.374634E1,4.3932678E2,2.1962823E2,5.8490845E2,1.3128229E2,1.1837656E2,0E0,6.1486816E1,6.1197253E2,3.8170746E1,3.918186E2,0E0,2.6634277E1,0E0,0E0,0E0,0E0,0E0,0E0,0E0,0E0,0E0,0E0,0E0,0E0,0E0,0E0,0E0,0E0,0E0,0E0,0E0,0E0,0E0,0E0,0E0,0E0,0E0,0E0,0E0,0E0,0E0,0E0,0E0,0E0,0E0,0E0,0E0,0E0,0E0,0E0,0E0,0E0,0E0,0E0,0E0,0E0,0E0,0E0],"parents":[2147483647,0,0,1,1,2,2,3,3,4,4,5,5,6,6,7,7,8,8,9,9,10,10,12,12,13,13,14,14,15,15,16,16,17,17,18,18,19,19,20,20,22,22,23,23,24,24,25,25,26,26,27,27,28,28,29,29,30,30,31,31,32,32,33,33,34,34,35,35,36,36,37,37,38,38,39,39,40,40,42,42,43,43,44,44,45,45,46,46,47,47,49,49,50,50,51,51,52,52,54,54],"right_children":[2,4,6,8,10,12,14,16,18,20,22,-1,24,26,28,30,32,34,36,38,40,-1,42,44,46,48,50,52,54,56,58,60,62,64,66,68,70,72,74,76,78,-1,80,82,84,86,88,90,-1,92,94,96,98,-1,100,-1,-1,-1,-1,-1,-1,-1,-1,-1,-1,-1,-1,-1,-1,-1,-1,-1,-1,-1,-1,-1,-1,-1,-1,-1,-1,-1,-1,-1,-1,-1,-1,-1,-1,-1,-1,-1,-1,-1,-1,-1,-1,-1,-1,-1,-1],"split_conditions":[1.6177727E1,2.7807966E-1,3.6851845E1,4.351138E-4,7.349153E1,1.8133957E1,5.0093193E1,1.2934208E-3,8.6749723E-4,4.5326233E0,4.7517726E-3,-8.685809E-2,4.398583E0,1.0613102E1,2.8822474E1,1.2874601E-3,7.28572E-3,4.3809428E-4,1.593142E-1,2.0214856E0,4.8446293E0,-7.946705E-2,1.9524999E0,2.9112577E0,1.1397339E2,9.903151E0,7.8904724E1,5.6347805E1,5.494446E1,3.427267E-3,7.28572E-3,5.1410217E-3,1.7106533E-3,1.7166138E-3,8.583069E-4,1.7072288E-3,1.8304642E-1,8.885056E-1,1.83807E1,4.7107043E0,7.1622252E0,-7.0979714E-2,2.6220858E0,2.5129795E1,4.0118575E0,9.7168655E1,1.883638E1,4.201945E1,-1.2480581E-1,4.6522873E1,2.3428574E1,5.2223545E1,6.2730614E1,-1.082462E-1,9.4119316E1,1.5523255E-2,-5.8207102E-2,-8.518284E-2,7.478875E-2,-8.606064E-2,1.4708283E-3,-9.1604315E-2,-7.726144E-2,-8.127153E-2,6.1128277E-2,-6.438459E-3,4.758003E-2,-6.927674E-2,-1.1065706E-3,7.7534504E-2,1.6355855E-2,-3.3198096E-2,3.901939E-2,-5.3258777E-2,-2.5030887E-2,-6.296904E-2,1.1009052E-1,-4.8949234E-2,1.8604733E-3,7.639405E-2,4.6432447E-2,-4.449676E-2,1.8949647E-2,-8.977746E-2,-2.020505E-2,2.4449991E-2,-1.1067919E-1,5.8070477E-2,-1.0503822E-1,-1.0289945E-1,3.0053545E-2,2.321021E-2,4.7228985E-2,4.1629206E-2,-1.2402215E-1,-8.2762174E-2,7.273332E-2,-1.2450627E-1,4.471122E-2,5.1408656E-2,5.9618164E-2],"split_indices":[2,3,2,1,3,3,2,2,1,1,1,0,1,1,1,2,3,1,2,3,3,0,2,1,3,1,3,3,3,3,3,3,2,2,1,1,2,1,3,2,2,0,2,3,1,3,1,3,0,3,1,3,3,0,2,0,0,0,0,0,0,0,0,0,0,0,0,0,0,0,0,0,0,0,0,0,0,0,0,0,0,0,0,0,0,0,0,0,0,0,0,0,0,0,0,0,0,0,0,0,0],"split_type":[0,0,0,0,0,0,0,0,0,0,0,0,0,0,0,0,0,0,0,0,0,0,0,0,0,0,0,0,0,0,0,0,0,0,0,0,0,0,0,0,0,0,0,0,0,0,0,0,0,0,0,0,0,0,0,0,0,0,0,0,0,0,0,0,0,0,0,0,0,0,0,0,0,0,0,0,0,0,0,0,0,0,0,0,0,0,0,0,0,0,0,0,0,0,0,0,0,0,0,0,0],"sum_hessian":[7.847205E4,4.958552E4,2.8886525E4,1.4770154E4,3.4815363E4,1.4794839E4,1.4091686E4,4.471708E3,1.0298446E4,3.3220992E4,1.5943728E3,1.2416231E2,1.4670677E4,4.5571484E3,9.534537E3,3.4541406E3,1.0175671E3,5.6385903E3,4.659856E3,2.7939172E4,5.281821E3,8.101781E1,1.513355E3,4.353238E3,1.0317439E4,1.546743E3,3.0104055E3,5.262655E3,4.2718823E3,3.2334512E3,2.2068942E2,3.946839E2,6.228832E2,1.4984994E3,4.140091E3,3.938584E3,7.2127216E2,7.0379146E3,2.0901256E4,1.3449245E2,5.147328E3,3.0945414E1,1.4824095E3,3.853691E3,4.9954672E2,9.679629E3,6.378098E2,1.5209911E3,2.5751942E1,2.197936E3,8.124694E2,2.566995E2,5.0059556E3,7.2111197E0,4.2646714E3,2.8742522E3,3.59199E2,1.6268755E1,2.0442067E2,1.3680011E2,2.578838E2,4.851663E1,5.743665E2,5.5541355E1,1.4429581E3,1.5915518E3,2.548539E3,5.4598596E2,3.3925981E3,3.7259808E2,3.4867404E2,6.152638E3,8.852765E2,1.3748334E4,7.1529224E3,5.3151455E0,1.291773E2,6.858977E2,4.4614307E3,2.4965787E2,1.2327517E3,2.9454712E2,3.5591438E3,3.2427374E2,1.75273E2,9.599845E3,7.978494E1,6.26108E2,1.1701859E1,1.5977555E1,1.5050135E3,3.1383453E2,1.8841014E3,7.532274E2,5.9242035E1,3.220132E0,2.5347935E2,3.3512615E1,4.972443E3,2.5141665E3,1.7505048E3],"tree_param":{"num_deleted":"0","num_feature":"4","num_nodes":"101","size_leaf_vector":"1"}},{"base_weights":[3.0531365E-2,-3.1398472E-1,6.2588215E-1,2.833715E-1,-5.317522E-1,3.446719E-1,9.247063E-1,-8.674365E-2,2.939567E-1,-6.206043E-1,3.6782205E-1,1.5228881E-1,9.332837E-1,-1.0313066E-1,9.341756E-1,1.2952033E0,2.6595223E-1,-7.043958E-1,3.813994E-1,-6.450193E-1,8.8188285E-1,-6.891746E-2,4.1588306E-1,9.8371196E-1,-1.3080344E-1,7.960716E-1,1.0975548E0,-8.5259825E-2,1.5464611E0,-8.795166E-2,2.931869E-1,-7.6537627E-1,-1.9391775E-1,1.5948428E-1,1.6344049E0,2.973167E-1,-1.1802309E0,1.5410702E-1,1.0482688E0,-8.6723363E-1,5.8978084E-2,-9.790145E-2,4.3055835E-1,8.3775437E-1,1.1765475E0,-1.293628E-1,7.7151227E-1,3.1930608E-1,8.659566E-1,-9.761761E-2,1.1036003E0,8.582249E-2,-8.025848E-2,1.1305732E-2,3.0484766E-2,-2.288085E-2,-4.4512313E-2,-4.1263327E-2,1.3985261E-2,-8.787388E-3,4.879036E-2,8.50588E-2,-8.806843E-2,-5.613076E-3,1.19479395E-1,-7.474324E-2,8.9979045E-2,4.8510578E-2,-8.690769E-2,-7.921034E-2,5.5828024E-2,-1.5002526E-2,-1.0268525E-1,-1.1374983E-2,2.3550712E-2,1.84254E-2,4.303079E-2,-1.0551709E-1,4.273524E-2,-1.14825845E-1,6.0427446E-2,-1.534389E-1,5.5355813E-2,4.1333206E-2,-6.1076194E-2,4.085098E-2,5.8697443E-2,1.9547163E-2,5.5690475E-2],"categories":[],"categories_nodes":[],"categories_segments":[],"categories_sizes":[],"default_left":[0,0,0,0,0,0,0,0,0,0,0,0,0,0,0,0,0,0,0,0,0,0,0,0,0,0,0,0,0,0,1,0,0,0,0,0,0,0,0,0,0,0,0,0,0,0,0,0,0,0,0,0,0,0,0,0,0,0,0,0,0,0,0,0,0,0,0,0,0,0,0,0,0,0,0,0,0,0,0,0,0,0,0,0,0,0,0,0,0],"id":14,"left_children":[1,3,5,7,9,11,13,-1,15,17,19,21,23,-1,25,27,29,31,33,35,37,39,41,43,45,47,49,-1,51,-1,53,55,57,59,61,63,65,67,69,71,73,-1,75,77,79,-1,81,83,85,-1,87,-1,-1,-1,-1,-1,-1,-1,-1,-1,-1,-1,-1,-1,-1,-1,-1,-1,-1,-1,-1,-1,-1,-1,-1,-1,-1,-1,-1,-1,-1,-1,-1,-1,-1,-1,-1,-1,-1],"loss_changes":[1.614775E4,6.4874385E3,2.4247236E3,2.8515283E2,2.9213857E3,1.6836049E3,3.976875E2,0E0,3.7132092E2,2.7929248E3,1.711421E3,6.535223E2,1.9665796E2,0E0,3.1381543E2,2.7432922E2,7.1171313E2,9.553779E2,7.1365967E2,5.585869E2,2.638274E2,6.223118E2,1.790011E2,9.74375E1,3.712616E2,2.5167139E2,1.199043E2,0E0,1.8119543E2,0E0,2.700099E2,1.0533242E3,9.80083E2,5.9737506E2,9.056201E1,3.4453085E2,6.6470715E2,6.299642E2,3.2073328E2,5.6575415E2,6.2027655E2,0E0,1.3533252E2,1.0143921E2,1.6993945E2,0E0,1.614234E2,7.579746E2,9.843408E1,0E0,4.594043E1,0E0,0E0,0E0,0E0,0E0,0E0,0E0,0E0,0E0,0E0,0E0,0E0,0E0,0E0,0E0,0E0,0E0,0E0,0E0,0E0,0E0,0E0,0E0,0E0,0E0,0E0,0E0,0E0,0E0,0E0,0E0,0E0,0E0,0E0,0E0,0E0,0E0,0E0],"parents":[2147483647,0,0,1,1,2,2,3,3,4,4,5,5,6,6,8,8,9,9,10,10,11,11,12,12,14,14,15,15,16,16,17,17,18,18,19,19,20,20,21,21,22,22,23,23,24,24,25,25,26,26,28,28,30,30,31,31,32,32,33,33,34,34,35,35,36,36,37,37,38,38,39,39,40,40,42,42,43,43,44,44,46,46,47,47,48,48,50,50],"right_children":[2,4,6,8,10,12,14,-1,16,18,20,22,24,-1,26,28,30,32,34,36,38,40,42,44,46,48,50,-1,52,-1,54,56,58,60,62,64,66,68,70,72,74,-1,76,78,80,-1,82,84,86,-1,88,-1,-1,-1,-1,-1,-1,-1,-1,-1,-1,-1,-1,-1,-1,-1,-1,-1,-1,-1,-1,-1,-1,-1,-1,-1,-1,-1,-1,-1,-1,-1,-1,-1,-1,-1,-1,-1,-1],"split_conditions":[1.6499712E1,1.520049E-1,3.8072848E0,1.3378494E0,6.519805E0,1.1397339E2,1.683054E1,-8.674365E-2,1.505165E0,4.9768047E1,4.027782E0,3.0707771E1,3.2510815E0,-1.0313066E-1,5.8830624E0,1.951775E-2,1.826008E0,1.2296981E1,5.359213E0,1.0729998E0,1.3072734E1,1.7420743E0,1.0840421E0,1.7002449E2,7.827282E1,3.3046513E1,1.719389E1,-8.5259825E-2,3.608456E-2,-8.795166E-2,5.2605333E0,2.0214856E0,2.9823706E0,1.02133415E2,6.019287E0,1.0135977E0,3.9048946E1,8.471845E0,5.8491163E0,4.1245705E1,4.7573383E1,-9.790145E-2,6.8885574E1,1.0140359E0,4.2277496E1,-1.293628E-1,3.560967E0,2.040847E1,1.466067E2,-9.761761E-2,2.1523073E1,8.582249E-2,-8.025848E-2,1.1305732E-2,3.0484766E-2,-2.288085E-2,-4.4512313E-2,-4.1263327E-2,1.3985261E-2,-8.787388E-3,4.879036E-2,8.50588E-2,-8.806843E-2,-5.613076E-3,1.19479395E-1,-7.474324E-2,8.9979045E-2,4.8510578E-2,-8.690769E-2,-7.921034E-2,5.5828024E-2,-1.5002526E-2,-1.0268525E-1,-1.1374983E-2,2.3550712E-2,1.84254E-2,4.303079E-2,-1.0551709E-1,4.273524E-2,-1.14825845E-1,6.0427446E-2,-1.534389E-1,5.5355813E-2,4.1333206E-2,-6.1076194E-2,4.085098E-2,5.8697443E-2,1.9547163E-2,5.5690475E-2],"split_indices":[2,3,0,0,0,3,2,0,0,3,2,2,0,0,0,3,0,2,0,3,3,0,0,3,2,3,2,0,3,0,0,3,0,3,0,3,3,3,2,3,3,0,2,0,2,0,0,2,3,0,3,0,0,0,0,0,0,0,0,0,0,0,0,0,0,0,0,0,0,0,0,0,0,0,0,0,0,0,0,0,0,0,0,0,0,0,0,0,0],"split_type":[0,0,0,0,0,0,0,0,0,0,0,0,0,0,0,0,0,0,0,0,0,0,0,0,0,0,0,0,0,0,0,0,0,0,0,0,0,0,0,0,0,0,0,0,0,0,0,0,0,0,0,0,0,0,0,0,0,0,0,0,0,0,0,0,0,0,0,0,0,0,0,0,0,0,0,0,0,0,0,0,0,0,0,0,0,0,0,0,0],"sum_hessian":[7.872611E4,4.986869E4,2.8857414E4,1.3322782E4,3.654591E4,1.4867972E4,1.3989442E4,6.866026E1,1.3254122E4,3.3260992E4,3.2849172E3,1.1206481E4,3.661491E3,4.3519135E1,1.3945924E4,3.5939487E2,1.2894728E4,3.0694494E4,2.5664968E3,1.1058444E3,2.179073E3,6.093555E3,5.112926E3,3.4958923E3,1.6559879E2,7.56073E3,6.3851934E3,2.7323545E1,3.3207132E2,1.7028001E2,1.2724447E4,2.741863E4,3.2758645E3,2.181302E3,3.8519492E2,4.0073065E2,7.051137E2,4.0584122E2,1.7732317E3,8.4062775E2,5.2529277E3,3.0599764E1,5.0823257E3,1.9928468E3,1.5030454E3,4.39856E1,1.2161318E2,9.6729236E2,6.5934375E3,1.1994695E1,6.3731987E3,3.1550916E2,1.656217E1,1.0500887E4,2.2235608E3,7.9151973E3,1.9503434E4,1.4038124E3,1.872052E3,1.546854E3,6.34448E2,3.782563E2,6.9386325E0,3.359184E2,6.481227E1,6.38223E2,6.689072E1,2.838906E2,1.2195061E2,4.427669E1,1.728955E3,5.695918E2,2.7103592E2,3.098837E3,2.1540906E3,4.443113E3,6.392129E2,1.0686575E1,1.9821602E3,1.3076801E1,1.4899686E3,9.119171E0,1.1249401E2,7.280324E2,2.3925995E2,5.6925923E3,9.008453E2,9.056485E1,6.2826343E3],"tree_param":{"num_deleted":"0",